digraph Tree {
node [shape=box, style="filled, rounded", color="black", fontname="helvetica"] ;
edge [fontname="helvetica"] ;
0 [label="density <= 0.99\nsquared_error = 1.53\nsamples = 2320\nvalue = 10.49", fillcolor="#f4cbad"] ;
1 [label="density <= 0.99\nsquared_error = 0.83\nsamples = 829\nvalue = 11.7", fillcolor="#efb185"] ;
0 -> 1 [labeldistance=2.5, labelangle=45, headlabel="True"] ;
2 [label="density <= 0.99\nsquared_error = 0.37\nsamples = 244\nvalue = 12.5", fillcolor="#eca16b"] ;
1 -> 2 ;
3 [label="density <= 0.99\nsquared_error = 0.27\nsamples = 96\nvalue = 12.81", fillcolor="#ea9a60"] ;
2 -> 3 ;
4 [label="volatile acidity <= 0.53\nsquared_error = 0.04\nsamples = 5\nvalue = 13.79", fillcolor="#e68540"] ;
3 -> 4 ;
5 [label="sulphates <= 0.56\nsquared_error = 0.0\nsamples = 2\nvalue = 13.96", fillcolor="#e5823a"] ;
4 -> 5 ;
6 [label="squared_error = 0.0\nsamples = 1\nvalue = 13.9", fillcolor="#e5833c"] ;
5 -> 6 ;
7 [label="squared_error = 0.0\nsamples = 1\nvalue = 14.0", fillcolor="#e58139"] ;
5 -> 7 ;
8 [label="chlorides <= 0.01\nsquared_error = 0.0\nsamples = 3\nvalue = 13.54", fillcolor="#e78b48"] ;
4 -> 8 ;
9 [label="squared_error = 0.0\nsamples = 1\nvalue = 13.5", fillcolor="#e78c4a"] ;
8 -> 9 ;
10 [label="volatile acidity <= 0.65\nsquared_error = 0.0\nsamples = 2\nvalue = 13.56", fillcolor="#e78a47"] ;
8 -> 10 ;
11 [label="squared_error = -0.0\nsamples = 1\nvalue = 13.55", fillcolor="#e78a48"] ;
10 -> 11 ;
12 [label="squared_error = 0.0\nsamples = 1\nvalue = 13.6", fillcolor="#e78946"] ;
10 -> 12 ;
13 [label="residual sugar <= 1.93\nsquared_error = 0.19\nsamples = 91\nvalue = 12.71", fillcolor="#eb9c63"] ;
3 -> 13 ;
14 [label="density <= 0.99\nsquared_error = 0.12\nsamples = 50\nvalue = 12.51", fillcolor="#eba06a"] ;
13 -> 14 ;
15 [label="pH <= 3.21\nsquared_error = 0.11\nsamples = 32\nvalue = 12.62", fillcolor="#eb9e66"] ;
14 -> 15 ;
16 [label="fixed acidity <= 5.75\nsquared_error = 0.11\nsamples = 15\nvalue = 12.45", fillcolor="#eca16c"] ;
15 -> 16 ;
17 [label="squared_error = 0.0\nsamples = 1\nvalue = 11.7", fillcolor="#efb185"] ;
16 -> 17 ;
18 [label="citric acid <= 0.28\nsquared_error = 0.06\nsamples = 14\nvalue = 12.52", fillcolor="#eba06a"] ;
16 -> 18 ;
19 [label="fixed acidity <= 6.3\nsquared_error = 0.02\nsamples = 5\nvalue = 12.23", fillcolor="#eda673"] ;
18 -> 19 ;
20 [label="chlorides <= 0.03\nsquared_error = 0.0\nsamples = 3\nvalue = 12.14", fillcolor="#eda876"] ;
19 -> 20 ;
21 [label="squared_error = -0.0\nsamples = 2\nvalue = 12.2", fillcolor="#eda774"] ;
20 -> 21 ;
22 [label="squared_error = -0.0\nsamples = 1\nvalue = 12.1", fillcolor="#eda978"] ;
20 -> 22 ;
23 [label="chlorides <= 0.03\nsquared_error = 0.0\nsamples = 2\nvalue = 12.45", fillcolor="#eca26c"] ;
19 -> 23 ;
24 [label="squared_error = 0.0\nsamples = 1\nvalue = 12.5", fillcolor="#eca06a"] ;
23 -> 24 ;
25 [label="squared_error = 0.0\nsamples = 1\nvalue = 12.4", fillcolor="#eca36e"] ;
23 -> 25 ;
26 [label="total sulfur dioxide <= 126.0\nsquared_error = 0.03\nsamples = 9\nvalue = 12.66", fillcolor="#eb9d65"] ;
18 -> 26 ;
27 [label="free sulfur dioxide <= 15.5\nsquared_error = 0.01\nsamples = 7\nvalue = 12.62", fillcolor="#eb9e67"] ;
26 -> 27 ;
28 [label="free sulfur dioxide <= 11.5\nsquared_error = 0.01\nsamples = 2\nvalue = 12.43", fillcolor="#eca26d"] ;
27 -> 28 ;
29 [label="squared_error = 0.0\nsamples = 1\nvalue = 12.5", fillcolor="#eca06a"] ;
28 -> 29 ;
30 [label="squared_error = 0.0\nsamples = 1\nvalue = 12.3", fillcolor="#eca571"] ;
28 -> 30 ;
31 [label="citric acid <= 0.4\nsquared_error = 0.0\nsamples = 5\nvalue = 12.67", fillcolor="#eb9d65"] ;
27 -> 31 ;
32 [label="squared_error = 0.0\nsamples = 4\nvalue = 12.7", fillcolor="#eb9c64"] ;
31 -> 32 ;
33 [label="squared_error = -0.0\nsamples = 1\nvalue = 12.6", fillcolor="#eb9e67"] ;
31 -> 33 ;
34 [label="sulphates <= 0.52\nsquared_error = 0.0\nsamples = 2\nvalue = 12.95", fillcolor="#ea975c"] ;
26 -> 34 ;
35 [label="squared_error = 0.0\nsamples = 1\nvalue = 13.0", fillcolor="#e9965a"] ;
34 -> 35 ;
36 [label="squared_error = 0.0\nsamples = 1\nvalue = 12.9", fillcolor="#ea985d"] ;
34 -> 36 ;
37 [label="free sulfur dioxide <= 24.5\nsquared_error = 0.06\nsamples = 17\nvalue = 12.77", fillcolor="#ea9b61"] ;
15 -> 37 ;
38 [label="citric acid <= 0.31\nsquared_error = 0.01\nsamples = 5\nvalue = 12.97", fillcolor="#e9975b"] ;
37 -> 38 ;
39 [label="density <= 0.99\nsquared_error = 0.0\nsamples = 2\nvalue = 12.87", fillcolor="#ea995e"] ;
38 -> 39 ;
40 [label="squared_error = 0.0\nsamples = 1\nvalue = 12.8", fillcolor="#ea9a61"] ;
39 -> 40 ;
41 [label="squared_error = 0.0\nsamples = 1\nvalue = 12.9", fillcolor="#ea985d"] ;
39 -> 41 ;
42 [label="sulphates <= 0.36\nsquared_error = 0.0\nsamples = 3\nvalue = 13.02", fillcolor="#e99659"] ;
38 -> 42 ;
43 [label="squared_error = 0.0\nsamples = 1\nvalue = 13.1", fillcolor="#e99457"] ;
42 -> 43 ;
44 [label="squared_error = 0.0\nsamples = 2\nvalue = 13.0", fillcolor="#e9965a"] ;
42 -> 44 ;
45 [label="fixed acidity <= 5.5\nsquared_error = 0.06\nsamples = 12\nvalue = 12.68", fillcolor="#eb9d65"] ;
37 -> 45 ;
46 [label="chlorides <= 0.03\nsquared_error = 0.02\nsamples = 2\nvalue = 12.3", fillcolor="#eca571"] ;
45 -> 46 ;
47 [label="squared_error = 0.0\nsamples = 1\nvalue = 12.4", fillcolor="#eca36e"] ;
46 -> 47 ;
48 [label="squared_error = 0.0\nsamples = 1\nvalue = 12.1", fillcolor="#eda978"] ;
46 -> 48 ;
49 [label="volatile acidity <= 0.2\nsquared_error = 0.03\nsamples = 10\nvalue = 12.75", fillcolor="#ea9b62"] ;
45 -> 49 ;
50 [label="quality <= 7.0\nsquared_error = 0.01\nsamples = 2\nvalue = 12.95", fillcolor="#ea975c"] ;
49 -> 50 ;
51 [label="squared_error = 0.0\nsamples = 1\nvalue = 12.9", fillcolor="#ea985d"] ;
50 -> 51 ;
52 [label="squared_error = -0.0\nsamples = 1\nvalue = 13.1", fillcolor="#e99457"] ;
50 -> 52 ;
53 [label="fixed acidity <= 6.1\nsquared_error = 0.02\nsamples = 8\nvalue = 12.68", fillcolor="#eb9d64"] ;
49 -> 53 ;
54 [label="volatile acidity <= 0.46\nsquared_error = 0.01\nsamples = 6\nvalue = 12.59", fillcolor="#eb9f68"] ;
53 -> 54 ;
55 [label="pH <= 3.41\nsquared_error = 0.0\nsamples = 5\nvalue = 12.62", fillcolor="#eb9e67"] ;
54 -> 55 ;
56 [label="citric acid <= 0.28\nsquared_error = 0.0\nsamples = 4\nvalue = 12.6", fillcolor="#eb9e67"] ;
55 -> 56 ;
57 [label="squared_error = 0.0\nsamples = 1\nvalue = 12.6", fillcolor="#eb9e67"] ;
56 -> 57 ;
58 [label="squared_error = 0.0\nsamples = 3\nvalue = 12.6", fillcolor="#eb9e67"] ;
56 -> 58 ;
59 [label="squared_error = -0.0\nsamples = 1\nvalue = 12.7", fillcolor="#eb9c64"] ;
55 -> 59 ;
60 [label="squared_error = -0.0\nsamples = 1\nvalue = 12.4", fillcolor="#eca36e"] ;
54 -> 60 ;
61 [label="residual sugar <= 1.4\nsquared_error = 0.0\nsamples = 2\nvalue = 12.85", fillcolor="#ea995f"] ;
53 -> 61 ;
62 [label="squared_error = 0.0\nsamples = 1\nvalue = 12.8", fillcolor="#ea9a61"] ;
61 -> 62 ;
63 [label="squared_error = -0.0\nsamples = 1\nvalue = 12.9", fillcolor="#ea985d"] ;
61 -> 63 ;
64 [label="citric acid <= 0.51\nsquared_error = 0.08\nsamples = 18\nvalue = 12.31", fillcolor="#eca471"] ;
14 -> 64 ;
65 [label="residual sugar <= 1.45\nsquared_error = 0.05\nsamples = 17\nvalue = 12.26", fillcolor="#eda572"] ;
64 -> 65 ;
66 [label="volatile acidity <= 0.22\nsquared_error = 0.02\nsamples = 8\nvalue = 12.15", fillcolor="#eda876"] ;
65 -> 66 ;
67 [label="squared_error = 0.0\nsamples = 2\nvalue = 12.0", fillcolor="#eeab7b"] ;
66 -> 67 ;
68 [label="volatile acidity <= 0.27\nsquared_error = 0.01\nsamples = 6\nvalue = 12.22", fillcolor="#eda674"] ;
66 -> 68 ;
69 [label="residual sugar <= 0.95\nsquared_error = 0.0\nsamples = 3\nvalue = 12.3", fillcolor="#eca571"] ;
68 -> 69 ;
70 [label="squared_error = 0.0\nsamples = 1\nvalue = 12.2", fillcolor="#eda774"] ;
69 -> 70 ;
71 [label="density <= 0.99\nsquared_error = 0.0\nsamples = 2\nvalue = 12.32", fillcolor="#eca470"] ;
69 -> 71 ;
72 [label="squared_error = 0.0\nsamples = 1\nvalue = 12.3", fillcolor="#eca571"] ;
71 -> 72 ;
73 [label="squared_error = 0.0\nsamples = 1\nvalue = 12.4", fillcolor="#eca36e"] ;
71 -> 73 ;
74 [label="total sulfur dioxide <= 105.0\nsquared_error = 0.0\nsamples = 3\nvalue = 12.15", fillcolor="#eda876"] ;
68 -> 74 ;
75 [label="squared_error = 0.0\nsamples = 1\nvalue = 12.2", fillcolor="#eda774"] ;
74 -> 75 ;
76 [label="residual sugar <= 1.1\nsquared_error = 0.0\nsamples = 2\nvalue = 12.1", fillcolor="#eda978"] ;
74 -> 76 ;
77 [label="squared_error = 0.0\nsamples = 1\nvalue = 12.1", fillcolor="#eda978"] ;
76 -> 77 ;
78 [label="squared_error = 0.0\nsamples = 1\nvalue = 12.1", fillcolor="#eda978"] ;
76 -> 78 ;
79 [label="residual sugar <= 1.65\nsquared_error = 0.04\nsamples = 9\nvalue = 12.43", fillcolor="#eca26d"] ;
65 -> 79 ;
80 [label="total sulfur dioxide <= 80.5\nsquared_error = 0.01\nsamples = 6\nvalue = 12.54", fillcolor="#eba069"] ;
79 -> 80 ;
81 [label="squared_error = 0.0\nsamples = 1\nvalue = 12.7", fillcolor="#eb9c64"] ;
80 -> 81 ;
82 [label="quality <= 7.5\nsquared_error = 0.0\nsamples = 5\nvalue = 12.48", fillcolor="#eca16b"] ;
80 -> 82 ;
83 [label="squared_error = 0.0\nsamples = 4\nvalue = 12.5", fillcolor="#eca06a"] ;
82 -> 83 ;
84 [label="squared_error = 0.0\nsamples = 1\nvalue = 12.4", fillcolor="#eca36e"] ;
82 -> 84 ;
85 [label="quality <= 6.5\nsquared_error = 0.03\nsamples = 3\nvalue = 12.22", fillcolor="#eda674"] ;
79 -> 85 ;
86 [label="squared_error = 0.0\nsamples = 1\nvalue = 12.5", fillcolor="#eca06a"] ;
85 -> 86 ;
87 [label="residual sugar <= 1.8\nsquared_error = 0.01\nsamples = 2\nvalue = 12.13", fillcolor="#eda877"] ;
85 -> 87 ;
88 [label="squared_error = 0.0\nsamples = 1\nvalue = 12.0", fillcolor="#eeab7b"] ;
87 -> 88 ;
89 [label="squared_error = 0.0\nsamples = 1\nvalue = 12.2", fillcolor="#eda774"] ;
87 -> 89 ;
90 [label="squared_error = 0.0\nsamples = 1\nvalue = 13.0", fillcolor="#e9965a"] ;
64 -> 90 ;
91 [label="volatile acidity <= 0.35\nsquared_error = 0.16\nsamples = 41\nvalue = 12.96", fillcolor="#ea975b"] ;
13 -> 91 ;
92 [label="chlorides <= 0.03\nsquared_error = 0.14\nsamples = 25\nvalue = 12.81", fillcolor="#ea9a60"] ;
91 -> 92 ;
93 [label="density <= 0.99\nsquared_error = 0.16\nsamples = 5\nvalue = 13.26", fillcolor="#e89152"] ;
92 -> 93 ;
94 [label="residual sugar <= 2.2\nsquared_error = 0.01\nsamples = 3\nvalue = 12.9", fillcolor="#ea985d"] ;
93 -> 94 ;
95 [label="pH <= 3.23\nsquared_error = 0.0\nsamples = 2\nvalue = 12.83", fillcolor="#ea9a5f"] ;
94 -> 95 ;
96 [label="squared_error = 0.0\nsamples = 1\nvalue = 12.8", fillcolor="#ea9a61"] ;
95 -> 96 ;
97 [label="squared_error = 0.0\nsamples = 1\nvalue = 12.9", fillcolor="#ea985d"] ;
95 -> 97 ;
98 [label="squared_error = 0.0\nsamples = 1\nvalue = 13.0", fillcolor="#e9965a"] ;
94 -> 98 ;
99 [label="squared_error = -0.0\nsamples = 2\nvalue = 13.7", fillcolor="#e68743"] ;
93 -> 99 ;
100 [label="residual sugar <= 2.25\nsquared_error = 0.06\nsamples = 20\nvalue = 12.69", fillcolor="#eb9c64"] ;
92 -> 100 ;
101 [label="sulphates <= 0.46\nsquared_error = 0.07\nsamples = 6\nvalue = 12.44", fillcolor="#eca26c"] ;
100 -> 101 ;
102 [label="squared_error = -0.0\nsamples = 2\nvalue = 12.7", fillcolor="#eb9c64"] ;
101 -> 102 ;
103 [label="sulphates <= 0.56\nsquared_error = 0.01\nsamples = 4\nvalue = 12.19", fillcolor="#eda775"] ;
101 -> 103 ;
104 [label="fixed acidity <= 5.95\nsquared_error = 0.0\nsamples = 3\nvalue = 12.24", fillcolor="#eda673"] ;
103 -> 104 ;
105 [label="squared_error = 0.0\nsamples = 1\nvalue = 12.3", fillcolor="#eca571"] ;
104 -> 105 ;
106 [label="free sulfur dioxide <= 22.0\nsquared_error = 0.0\nsamples = 2\nvalue = 12.18", fillcolor="#eda775"] ;
104 -> 106 ;
107 [label="squared_error = 0.0\nsamples = 1\nvalue = 12.15", fillcolor="#eda876"] ;
106 -> 107 ;
108 [label="squared_error = -0.0\nsamples = 1\nvalue = 12.2", fillcolor="#eda774"] ;
106 -> 108 ;
109 [label="squared_error = 0.0\nsamples = 1\nvalue = 12.0", fillcolor="#eeab7b"] ;
103 -> 109 ;
110 [label="sulphates <= 0.68\nsquared_error = 0.02\nsamples = 14\nvalue = 12.8", fillcolor="#ea9a61"] ;
100 -> 110 ;
111 [label="free sulfur dioxide <= 41.5\nsquared_error = 0.01\nsamples = 13\nvalue = 12.75", fillcolor="#ea9b62"] ;
110 -> 111 ;
112 [label="sulphates <= 0.4\nsquared_error = 0.01\nsamples = 12\nvalue = 12.73", fillcolor="#eb9c63"] ;
111 -> 112 ;
113 [label="quality <= 6.5\nsquared_error = 0.0\nsamples = 7\nvalue = 12.78", fillcolor="#ea9b61"] ;
112 -> 113 ;
114 [label="squared_error = 0.0\nsamples = 2\nvalue = 12.7", fillcolor="#eb9c64"] ;
113 -> 114 ;
115 [label="squared_error = 0.0\nsamples = 5\nvalue = 12.8", fillcolor="#ea9a61"] ;
113 -> 115 ;
116 [label="chlorides <= 0.04\nsquared_error = 0.0\nsamples = 5\nvalue = 12.67", fillcolor="#eb9d65"] ;
112 -> 116 ;
117 [label="squared_error = 0.0\nsamples = 2\nvalue = 12.6", fillcolor="#eb9e67"] ;
116 -> 117 ;
118 [label="squared_error = -0.0\nsamples = 3\nvalue = 12.7", fillcolor="#eb9c64"] ;
116 -> 118 ;
119 [label="squared_error = 0.0\nsamples = 1\nvalue = 13.0", fillcolor="#e9965a"] ;
111 -> 119 ;
120 [label="squared_error = 0.0\nsamples = 1\nvalue = 13.1", fillcolor="#e99457"] ;
110 -> 120 ;
121 [label="free sulfur dioxide <= 18.5\nsquared_error = 0.1\nsamples = 16\nvalue = 13.22", fillcolor="#e89153"] ;
91 -> 121 ;
122 [label="total sulfur dioxide <= 87.0\nsquared_error = 0.02\nsamples = 2\nvalue = 12.65", fillcolor="#eb9d66"] ;
121 -> 122 ;
123 [label="squared_error = 0.0\nsamples = 1\nvalue = 12.8", fillcolor="#ea9a61"] ;
122 -> 123 ;
124 [label="squared_error = 0.0\nsamples = 1\nvalue = 12.5", fillcolor="#eca06a"] ;
122 -> 124 ;
125 [label="volatile acidity <= 0.4\nsquared_error = 0.04\nsamples = 14\nvalue = 13.33", fillcolor="#e88f4f"] ;
121 -> 125 ;
126 [label="chlorides <= 0.03\nsquared_error = 0.0\nsamples = 5\nvalue = 13.48", fillcolor="#e78c4a"] ;
125 -> 126 ;
127 [label="squared_error = 0.0\nsamples = 1\nvalue = 13.4", fillcolor="#e88e4d"] ;
126 -> 127 ;
128 [label="citric acid <= 0.27\nsquared_error = 0.0\nsamples = 4\nvalue = 13.52", fillcolor="#e78b49"] ;
126 -> 128 ;
129 [label="squared_error = 0.0\nsamples = 1\nvalue = 13.6", fillcolor="#e78946"] ;
128 -> 129 ;
130 [label="squared_error = 0.0\nsamples = 3\nvalue = 13.5", fillcolor="#e78c4a"] ;
128 -> 130 ;
131 [label="citric acid <= 0.29\nsquared_error = 0.04\nsamples = 9\nvalue = 13.21", fillcolor="#e89253"] ;
125 -> 131 ;
132 [label="free sulfur dioxide <= 31.5\nsquared_error = 0.01\nsamples = 6\nvalue = 13.32", fillcolor="#e88f4f"] ;
131 -> 132 ;
133 [label="squared_error = 0.0\nsamples = 4\nvalue = 13.4", fillcolor="#e88e4d"] ;
132 -> 133 ;
134 [label="squared_error = 0.0\nsamples = 2\nvalue = 13.2", fillcolor="#e89253"] ;
132 -> 134 ;
135 [label="free sulfur dioxide <= 31.0\nsquared_error = 0.01\nsamples = 3\nvalue = 12.9", fillcolor="#ea985d"] ;
131 -> 135 ;
136 [label="fixed acidity <= 6.25\nsquared_error = 0.0\nsamples = 2\nvalue = 12.95", fillcolor="#ea975c"] ;
135 -> 136 ;
137 [label="squared_error = 0.0\nsamples = 1\nvalue = 12.9", fillcolor="#ea985d"] ;
136 -> 137 ;
138 [label="squared_error = 0.0\nsamples = 1\nvalue = 13.0", fillcolor="#e9965a"] ;
136 -> 138 ;
139 [label="squared_error = 0.0\nsamples = 1\nvalue = 12.8", fillcolor="#ea9a61"] ;
135 -> 139 ;
140 [label="residual sugar <= 1.73\nsquared_error = 0.31\nsamples = 148\nvalue = 12.26", fillcolor="#eda572"] ;
2 -> 140 ;
141 [label="total sulfur dioxide <= 103.5\nsquared_error = 0.23\nsamples = 63\nvalue = 11.96", fillcolor="#eeac7c"] ;
140 -> 141 ;
142 [label="fixed acidity <= 6.95\nsquared_error = 0.19\nsamples = 39\nvalue = 11.75", fillcolor="#efb083"] ;
141 -> 142 ;
143 [label="residual sugar <= 1.45\nsquared_error = 0.15\nsamples = 31\nvalue = 11.63", fillcolor="#efb387"] ;
142 -> 143 ;
144 [label="density <= 0.99\nsquared_error = 0.11\nsamples = 21\nvalue = 11.5", fillcolor="#f0b68c"] ;
143 -> 144 ;
145 [label="residual sugar <= 1.25\nsquared_error = 0.14\nsamples = 4\nvalue = 11.97", fillcolor="#eeac7c"] ;
144 -> 145 ;
146 [label="squared_error = -0.0\nsamples = 1\nvalue = 11.6", fillcolor="#efb388"] ;
145 -> 146 ;
147 [label="quality <= 6.5\nsquared_error = 0.0\nsamples = 3\nvalue = 12.33", fillcolor="#eca470"] ;
145 -> 147 ;
148 [label="squared_error = 0.0\nsamples = 2\nvalue = 12.3", fillcolor="#eca571"] ;
147 -> 148 ;
149 [label="squared_error = 0.0\nsamples = 1\nvalue = 12.4", fillcolor="#eca36e"] ;
147 -> 149 ;
150 [label="free sulfur dioxide <= 5.5\nsquared_error = 0.05\nsamples = 17\nvalue = 11.4", fillcolor="#f0b88f"] ;
144 -> 150 ;
151 [label="squared_error = 0.0\nsamples = 1\nvalue = 10.6", fillcolor="#f4c8a9"] ;
150 -> 151 ;
152 [label="chlorides <= 0.03\nsquared_error = 0.03\nsamples = 16\nvalue = 11.43", fillcolor="#f0b78e"] ;
150 -> 152 ;
153 [label="fixed acidity <= 5.95\nsquared_error = 0.03\nsamples = 6\nvalue = 11.63", fillcolor="#efb387"] ;
152 -> 153 ;
154 [label="free sulfur dioxide <= 24.0\nsquared_error = 0.01\nsamples = 3\nvalue = 11.51", fillcolor="#f0b58b"] ;
153 -> 154 ;
155 [label="fixed acidity <= 5.85\nsquared_error = 0.0\nsamples = 2\nvalue = 11.47", fillcolor="#f0b68d"] ;
154 -> 155 ;
156 [label="squared_error = 0.0\nsamples = 1\nvalue = 11.4", fillcolor="#f0b88f"] ;
155 -> 156 ;
157 [label="squared_error = 0.0\nsamples = 1\nvalue = 11.5", fillcolor="#f0b68c"] ;
155 -> 157 ;
158 [label="squared_error = -0.0\nsamples = 1\nvalue = 11.63", fillcolor="#efb387"] ;
154 -> 158 ;
159 [label="fixed acidity <= 6.2\nsquared_error = 0.01\nsamples = 3\nvalue = 11.8", fillcolor="#efaf82"] ;
153 -> 159 ;
160 [label="squared_error = 0.0\nsamples = 1\nvalue = 11.9", fillcolor="#eead7e"] ;
159 -> 160 ;
161 [label="pH <= 3.06\nsquared_error = 0.0\nsamples = 2\nvalue = 11.75", fillcolor="#efb083"] ;
159 -> 161 ;
162 [label="squared_error = 0.0\nsamples = 1\nvalue = 11.7", fillcolor="#efb185"] ;
161 -> 162 ;
163 [label="squared_error = 0.0\nsamples = 1\nvalue = 11.8", fillcolor="#efaf82"] ;
161 -> 163 ;
164 [label="free sulfur dioxide <= 27.0\nsquared_error = 0.01\nsamples = 10\nvalue = 11.36", fillcolor="#f0b890"] ;
152 -> 164 ;
165 [label="total sulfur dioxide <= 70.0\nsquared_error = 0.01\nsamples = 6\nvalue = 11.42", fillcolor="#f0b78e"] ;
164 -> 165 ;
166 [label="squared_error = 0.0\nsamples = 1\nvalue = 11.7", fillcolor="#efb185"] ;
165 -> 166 ;
167 [label="squared_error = -0.0\nsamples = 5\nvalue = 11.4", fillcolor="#f0b88f"] ;
165 -> 167 ;
168 [label="chlorides <= 0.04\nsquared_error = 0.0\nsamples = 4\nvalue = 11.23", fillcolor="#f1bb94"] ;
164 -> 168 ;
169 [label="squared_error = 0.0\nsamples = 3\nvalue = 11.2", fillcolor="#f1bc95"] ;
168 -> 169 ;
170 [label="squared_error = -0.0\nsamples = 1\nvalue = 11.3", fillcolor="#f1ba92"] ;
168 -> 170 ;
171 [label="pH <= 3.06\nsquared_error = 0.08\nsamples = 10\nvalue = 11.99", fillcolor="#eeab7b"] ;
143 -> 171 ;
172 [label="squared_error = 0.0\nsamples = 1\nvalue = 11.2", fillcolor="#f1bc95"] ;
171 -> 172 ;
173 [label="total sulfur dioxide <= 72.0\nsquared_error = 0.03\nsamples = 9\nvalue = 12.06", fillcolor="#edaa79"] ;
171 -> 173 ;
174 [label="squared_error = 0.0\nsamples = 3\nvalue = 11.9", fillcolor="#eead7e"] ;
173 -> 174 ;
175 [label="free sulfur dioxide <= 29.0\nsquared_error = 0.02\nsamples = 6\nvalue = 12.14", fillcolor="#eda876"] ;
173 -> 175 ;
176 [label="pH <= 3.45\nsquared_error = 0.0\nsamples = 3\nvalue = 12.28", fillcolor="#eca572"] ;
175 -> 176 ;
177 [label="squared_error = -0.0\nsamples = 2\nvalue = 12.3", fillcolor="#eca571"] ;
176 -> 177 ;
178 [label="squared_error = 0.0\nsamples = 1\nvalue = 12.2", fillcolor="#eda774"] ;
176 -> 178 ;
179 [label="residual sugar <= 1.55\nsquared_error = 0.0\nsamples = 3\nvalue = 12.0", fillcolor="#eeab7b"] ;
175 -> 179 ;
180 [label="squared_error = 0.0\nsamples = 2\nvalue = 12.0", fillcolor="#eeab7b"] ;
179 -> 180 ;
181 [label="squared_error = 0.0\nsamples = 1\nvalue = 12.0", fillcolor="#eeab7b"] ;
179 -> 181 ;
182 [label="chlorides <= 0.04\nsquared_error = 0.11\nsamples = 8\nvalue = 12.16", fillcolor="#eda876"] ;
142 -> 182 ;
183 [label="citric acid <= 0.3\nsquared_error = 0.03\nsamples = 4\nvalue = 11.91", fillcolor="#eead7e"] ;
182 -> 183 ;
184 [label="squared_error = 0.0\nsamples = 1\nvalue = 11.7", fillcolor="#efb185"] ;
183 -> 184 ;
185 [label="volatile acidity <= 0.25\nsquared_error = 0.0\nsamples = 3\nvalue = 12.04", fillcolor="#edaa7a"] ;
183 -> 185 ;
186 [label="squared_error = 0.0\nsamples = 2\nvalue = 12.0", fillcolor="#eeab7b"] ;
185 -> 186 ;
187 [label="squared_error = -0.0\nsamples = 1\nvalue = 12.1", fillcolor="#eda978"] ;
185 -> 187 ;
188 [label="citric acid <= 0.35\nsquared_error = 0.01\nsamples = 4\nvalue = 12.5", fillcolor="#eca06a"] ;
182 -> 188 ;
189 [label="chlorides <= 0.05\nsquared_error = 0.0\nsamples = 3\nvalue = 12.46", fillcolor="#eca16c"] ;
188 -> 189 ;
190 [label="squared_error = 0.0\nsamples = 1\nvalue = 12.5", fillcolor="#eca06a"] ;
189 -> 190 ;
191 [label="squared_error = 0.0\nsamples = 2\nvalue = 12.4", fillcolor="#eca36e"] ;
189 -> 191 ;
192 [label="squared_error = -0.0\nsamples = 1\nvalue = 12.7", fillcolor="#eb9c64"] ;
188 -> 192 ;
193 [label="sulphates <= 0.56\nsquared_error = 0.11\nsamples = 24\nvalue = 12.28", fillcolor="#eca572"] ;
141 -> 193 ;
194 [label="volatile acidity <= 0.28\nsquared_error = 0.06\nsamples = 18\nvalue = 12.43", fillcolor="#eca26d"] ;
193 -> 194 ;
195 [label="free sulfur dioxide <= 34.5\nsquared_error = 0.05\nsamples = 10\nvalue = 12.53", fillcolor="#eba069"] ;
194 -> 195 ;
196 [label="sulphates <= 0.39\nsquared_error = 0.01\nsamples = 6\nvalue = 12.64", fillcolor="#eb9e66"] ;
195 -> 196 ;
197 [label="total sulfur dioxide <= 125.5\nsquared_error = 0.0\nsamples = 3\nvalue = 12.7", fillcolor="#eb9c64"] ;
196 -> 197 ;
198 [label="squared_error = 0.0\nsamples = 2\nvalue = 12.7", fillcolor="#eb9c64"] ;
197 -> 198 ;
199 [label="squared_error = -0.0\nsamples = 1\nvalue = 12.7", fillcolor="#eb9c64"] ;
197 -> 199 ;
200 [label="total sulfur dioxide <= 107.0\nsquared_error = 0.01\nsamples = 3\nvalue = 12.5", fillcolor="#eca06a"] ;
196 -> 200 ;
201 [label="squared_error = 0.0\nsamples = 1\nvalue = 12.4", fillcolor="#eca36e"] ;
200 -> 201 ;
202 [label="residual sugar <= 1.4\nsquared_error = 0.0\nsamples = 2\nvalue = 12.53", fillcolor="#eba069"] ;
200 -> 202 ;
203 [label="squared_error = 0.0\nsamples = 1\nvalue = 12.5", fillcolor="#eca06a"] ;
202 -> 203 ;
204 [label="squared_error = -0.0\nsamples = 1\nvalue = 12.6", fillcolor="#eb9e67"] ;
202 -> 204 ;
205 [label="residual sugar <= 1.25\nsquared_error = 0.04\nsamples = 4\nvalue = 12.26", fillcolor="#eda672"] ;
195 -> 205 ;
206 [label="squared_error = 0.0\nsamples = 2\nvalue = 12.1", fillcolor="#eda978"] ;
205 -> 206 ;
207 [label="volatile acidity <= 0.2\nsquared_error = 0.01\nsamples = 2\nvalue = 12.5", fillcolor="#eca06a"] ;
205 -> 207 ;
208 [label="squared_error = 0.0\nsamples = 1\nvalue = 12.4", fillcolor="#eca36e"] ;
207 -> 208 ;
209 [label="squared_error = -0.0\nsamples = 1\nvalue = 12.6", fillcolor="#eb9e67"] ;
207 -> 209 ;
210 [label="sulphates <= 0.4\nsquared_error = 0.03\nsamples = 8\nvalue = 12.25", fillcolor="#eda673"] ;
194 -> 210 ;
211 [label="volatile acidity <= 0.31\nsquared_error = 0.0\nsamples = 6\nvalue = 12.15", fillcolor="#eda876"] ;
210 -> 211 ;
212 [label="squared_error = 0.0\nsamples = 2\nvalue = 12.1", fillcolor="#eda978"] ;
211 -> 212 ;
213 [label="squared_error = -0.0\nsamples = 4\nvalue = 12.2", fillcolor="#eda774"] ;
211 -> 213 ;
214 [label="sulphates <= 0.43\nsquared_error = 0.01\nsamples = 2\nvalue = 12.53", fillcolor="#eba069"] ;
210 -> 214 ;
215 [label="squared_error = 0.0\nsamples = 1\nvalue = 12.4", fillcolor="#eca36e"] ;
214 -> 215 ;
216 [label="squared_error = -0.0\nsamples = 1\nvalue = 12.6", fillcolor="#eb9e67"] ;
214 -> 216 ;
217 [label="fixed acidity <= 5.8\nsquared_error = 0.02\nsamples = 6\nvalue = 11.88", fillcolor="#eead7f"] ;
193 -> 217 ;
218 [label="pH <= 3.38\nsquared_error = 0.0\nsamples = 2\nvalue = 12.07", fillcolor="#edaa79"] ;
217 -> 218 ;
219 [label="squared_error = 0.0\nsamples = 1\nvalue = 12.1", fillcolor="#eda978"] ;
218 -> 219 ;
220 [label="squared_error = -0.0\nsamples = 1\nvalue = 12.0", fillcolor="#eeab7b"] ;
218 -> 220 ;
221 [label="pH <= 3.02\nsquared_error = 0.01\nsamples = 4\nvalue = 11.82", fillcolor="#eeaf81"] ;
217 -> 221 ;
222 [label="squared_error = 0.0\nsamples = 1\nvalue = 12.0", fillcolor="#eeab7b"] ;
221 -> 222 ;
223 [label="citric acid <= 0.3\nsquared_error = 0.0\nsamples = 3\nvalue = 11.76", fillcolor="#efb083"] ;
221 -> 223 ;
224 [label="squared_error = 0.0\nsamples = 1\nvalue = 11.9", fillcolor="#eead7e"] ;
223 -> 224 ;
225 [label="fixed acidity <= 6.2\nsquared_error = 0.0\nsamples = 2\nvalue = 11.73", fillcolor="#efb184"] ;
223 -> 225 ;
226 [label="squared_error = 0.0\nsamples = 1\nvalue = 11.73", fillcolor="#efb184"] ;
225 -> 226 ;
227 [label="squared_error = -0.0\nsamples = 1\nvalue = 11.7", fillcolor="#efb185"] ;
225 -> 227 ;
228 [label="residual sugar <= 3.95\nsquared_error = 0.24\nsamples = 85\nvalue = 12.53", fillcolor="#eba06a"] ;
140 -> 228 ;
229 [label="sulphates <= 0.36\nsquared_error = 0.2\nsamples = 62\nvalue = 12.37", fillcolor="#eca36f"] ;
228 -> 229 ;
230 [label="fixed acidity <= 5.4\nsquared_error = 0.09\nsamples = 12\nvalue = 11.9", fillcolor="#eead7e"] ;
229 -> 230 ;
231 [label="density <= 0.99\nsquared_error = 0.01\nsamples = 2\nvalue = 11.35", fillcolor="#f0b990"] ;
230 -> 231 ;
232 [label="squared_error = 0.0\nsamples = 1\nvalue = 11.5", fillcolor="#f0b68c"] ;
231 -> 232 ;
233 [label="squared_error = 0.0\nsamples = 1\nvalue = 11.3", fillcolor="#f1ba92"] ;
231 -> 233 ;
234 [label="fixed acidity <= 7.35\nsquared_error = 0.02\nsamples = 10\nvalue = 12.02", fillcolor="#eeab7a"] ;
230 -> 234 ;
235 [label="volatile acidity <= 0.23\nsquared_error = 0.01\nsamples = 9\nvalue = 12.0", fillcolor="#eeab7b"] ;
234 -> 235 ;
236 [label="squared_error = 0.0\nsamples = 2\nvalue = 11.8", fillcolor="#efaf82"] ;
235 -> 236 ;
237 [label="quality <= 5.5\nsquared_error = 0.0\nsamples = 7\nvalue = 12.03", fillcolor="#eeaa7a"] ;
235 -> 237 ;
238 [label="fixed acidity <= 6.7\nsquared_error = 0.0\nsamples = 2\nvalue = 12.13", fillcolor="#eda877"] ;
237 -> 238 ;
239 [label="squared_error = 0.0\nsamples = 1\nvalue = 12.2", fillcolor="#eda774"] ;
238 -> 239 ;
240 [label="squared_error = 0.0\nsamples = 1\nvalue = 12.1", fillcolor="#eda978"] ;
238 -> 240 ;
241 [label="chlorides <= 0.03\nsquared_error = 0.0\nsamples = 5\nvalue = 12.0", fillcolor="#eeab7b"] ;
237 -> 241 ;
242 [label="squared_error = 0.0\nsamples = 1\nvalue = 12.0", fillcolor="#eeab7b"] ;
241 -> 242 ;
243 [label="squared_error = 0.0\nsamples = 4\nvalue = 12.0", fillcolor="#eeab7b"] ;
241 -> 243 ;
244 [label="squared_error = -0.0\nsamples = 1\nvalue = 12.4", fillcolor="#eca36e"] ;
234 -> 244 ;
245 [label="pH <= 3.06\nsquared_error = 0.14\nsamples = 50\nvalue = 12.53", fillcolor="#eba069"] ;
229 -> 245 ;
246 [label="free sulfur dioxide <= 13.0\nsquared_error = 0.03\nsamples = 3\nvalue = 11.6", fillcolor="#efb388"] ;
245 -> 246 ;
247 [label="squared_error = 0.0\nsamples = 1\nvalue = 11.4", fillcolor="#f0b88f"] ;
246 -> 247 ;
248 [label="chlorides <= 0.04\nsquared_error = 0.01\nsamples = 2\nvalue = 11.7", fillcolor="#efb185"] ;
246 -> 248 ;
249 [label="squared_error = 0.0\nsamples = 1\nvalue = 11.8", fillcolor="#efaf82"] ;
248 -> 249 ;
250 [label="squared_error = 0.0\nsamples = 1\nvalue = 11.6", fillcolor="#efb388"] ;
248 -> 250 ;
251 [label="volatile acidity <= 0.39\nsquared_error = 0.1\nsamples = 47\nvalue = 12.58", fillcolor="#eb9f68"] ;
245 -> 251 ;
252 [label="sulphates <= 0.78\nsquared_error = 0.07\nsamples = 40\nvalue = 12.52", fillcolor="#eba06a"] ;
251 -> 252 ;
253 [label="total sulfur dioxide <= 100.5\nsquared_error = 0.05\nsamples = 38\nvalue = 12.54", fillcolor="#eba069"] ;
252 -> 253 ;
254 [label="chlorides <= 0.05\nsquared_error = 0.03\nsamples = 16\nvalue = 12.4", fillcolor="#eca36e"] ;
253 -> 254 ;
255 [label="volatile acidity <= 0.34\nsquared_error = 0.01\nsamples = 14\nvalue = 12.34", fillcolor="#eca470"] ;
254 -> 255 ;
256 [label="residual sugar <= 3.75\nsquared_error = 0.01\nsamples = 12\nvalue = 12.37", fillcolor="#eca36f"] ;
255 -> 256 ;
257 [label="free sulfur dioxide <= 30.5\nsquared_error = 0.0\nsamples = 9\nvalue = 12.34", fillcolor="#eca470"] ;
256 -> 257 ;
258 [label="sulphates <= 0.47\nsquared_error = 0.0\nsamples = 7\nvalue = 12.32", fillcolor="#eca470"] ;
257 -> 258 ;
259 [label="pH <= 3.12\nsquared_error = 0.0\nsamples = 4\nvalue = 12.3", fillcolor="#eca571"] ;
258 -> 259 ;
260 [label="squared_error = 0.0\nsamples = 2\nvalue = 12.3", fillcolor="#eca571"] ;
259 -> 260 ;
261 [label="squared_error = 0.0\nsamples = 2\nvalue = 12.3", fillcolor="#eca571"] ;
259 -> 261 ;
262 [label="residual sugar <= 1.98\nsquared_error = 0.0\nsamples = 3\nvalue = 12.38", fillcolor="#eca36f"] ;
258 -> 262 ;
263 [label="squared_error = 0.0\nsamples = 1\nvalue = 12.33", fillcolor="#eca470"] ;
262 -> 263 ;
264 [label="squared_error = -0.0\nsamples = 2\nvalue = 12.4", fillcolor="#eca36e"] ;
262 -> 264 ;
265 [label="squared_error = -0.0\nsamples = 2\nvalue = 12.4", fillcolor="#eca36e"] ;
257 -> 265 ;
266 [label="quality <= 7.5\nsquared_error = 0.0\nsamples = 3\nvalue = 12.53", fillcolor="#eba069"] ;
256 -> 266 ;
267 [label="squared_error = 0.0\nsamples = 2\nvalue = 12.5", fillcolor="#eca06a"] ;
266 -> 267 ;
268 [label="squared_error = -0.0\nsamples = 1\nvalue = 12.6", fillcolor="#eb9e67"] ;
266 -> 268 ;
269 [label="fixed acidity <= 6.35\nsquared_error = 0.0\nsamples = 2\nvalue = 12.08", fillcolor="#eda978"] ;
255 -> 269 ;
270 [label="squared_error = 0.0\nsamples = 1\nvalue = 12.07", fillcolor="#edaa79"] ;
269 -> 270 ;
271 [label="squared_error = -0.0\nsamples = 1\nvalue = 12.1", fillcolor="#eda978"] ;
269 -> 271 ;
272 [label="total sulfur dioxide <= 88.0\nsquared_error = 0.0\nsamples = 2\nvalue = 12.77", fillcolor="#ea9b62"] ;
254 -> 272 ;
273 [label="squared_error = 0.0\nsamples = 1\nvalue = 12.8", fillcolor="#ea9a61"] ;
272 -> 273 ;
274 [label="squared_error = 0.0\nsamples = 1\nvalue = 12.7", fillcolor="#eb9c64"] ;
272 -> 274 ;
275 [label="total sulfur dioxide <= 153.0\nsquared_error = 0.04\nsamples = 22\nvalue = 12.66", fillcolor="#eb9d65"] ;
253 -> 275 ;
276 [label="free sulfur dioxide <= 36.5\nsquared_error = 0.02\nsamples = 20\nvalue = 12.7", fillcolor="#eb9c64"] ;
275 -> 276 ;
277 [label="pH <= 3.27\nsquared_error = 0.01\nsamples = 12\nvalue = 12.64", fillcolor="#eb9e66"] ;
276 -> 277 ;
278 [label="citric acid <= 0.29\nsquared_error = 0.0\nsamples = 6\nvalue = 12.73", fillcolor="#ea9c63"] ;
277 -> 278 ;
279 [label="squared_error = 0.0\nsamples = 1\nvalue = 12.6", fillcolor="#eb9e67"] ;
278 -> 279 ;
280 [label="residual sugar <= 2.4\nsquared_error = 0.0\nsamples = 5\nvalue = 12.76", fillcolor="#ea9b62"] ;
278 -> 280 ;
281 [label="squared_error = 0.0\nsamples = 2\nvalue = 12.8", fillcolor="#ea9a61"] ;
280 -> 281 ;
282 [label="pH <= 3.22\nsquared_error = 0.0\nsamples = 3\nvalue = 12.73", fillcolor="#ea9c63"] ;
280 -> 282 ;
283 [label="squared_error = 0.0\nsamples = 1\nvalue = 12.7", fillcolor="#eb9c64"] ;
282 -> 283 ;
284 [label="squared_error = -0.0\nsamples = 2\nvalue = 12.75", fillcolor="#ea9b62"] ;
282 -> 284 ;
285 [label="chlorides <= 0.03\nsquared_error = 0.01\nsamples = 6\nvalue = 12.56", fillcolor="#eb9f68"] ;
277 -> 285 ;
286 [label="squared_error = 0.0\nsamples = 1\nvalue = 12.8", fillcolor="#ea9a61"] ;
285 -> 286 ;
287 [label="citric acid <= 0.23\nsquared_error = 0.0\nsamples = 5\nvalue = 12.53", fillcolor="#eba06a"] ;
285 -> 287 ;
288 [label="squared_error = 0.0\nsamples = 1\nvalue = 12.6", fillcolor="#eb9e67"] ;
287 -> 288 ;
289 [label="squared_error = 0.0\nsamples = 4\nvalue = 12.5", fillcolor="#eca06a"] ;
287 -> 289 ;
290 [label="total sulfur dioxide <= 107.0\nsquared_error = 0.01\nsamples = 8\nvalue = 12.8", fillcolor="#ea9a61"] ;
276 -> 290 ;
291 [label="squared_error = 0.0\nsamples = 1\nvalue = 12.6", fillcolor="#eb9e67"] ;
290 -> 291 ;
292 [label="sulphates <= 0.42\nsquared_error = 0.01\nsamples = 7\nvalue = 12.82", fillcolor="#ea9a60"] ;
290 -> 292 ;
293 [label="fixed acidity <= 6.8\nsquared_error = 0.0\nsamples = 3\nvalue = 12.73", fillcolor="#eb9c63"] ;
292 -> 293 ;
294 [label="squared_error = 0.0\nsamples = 1\nvalue = 12.8", fillcolor="#ea9a61"] ;
293 -> 294 ;
295 [label="squared_error = -0.0\nsamples = 2\nvalue = 12.7", fillcolor="#eb9c64"] ;
293 -> 295 ;
296 [label="squared_error = 0.0\nsamples = 4\nvalue = 12.9", fillcolor="#ea985d"] ;
292 -> 296 ;
297 [label="chlorides <= 0.04\nsquared_error = 0.02\nsamples = 2\nvalue = 12.3", fillcolor="#eca571"] ;
275 -> 297 ;
298 [label="squared_error = 0.0\nsamples = 1\nvalue = 12.4", fillcolor="#eca36e"] ;
297 -> 298 ;
299 [label="squared_error = 0.0\nsamples = 1\nvalue = 12.1", fillcolor="#eda978"] ;
297 -> 299 ;
300 [label="free sulfur dioxide <= 67.0\nsquared_error = 0.0\nsamples = 2\nvalue = 11.85", fillcolor="#eeae80"] ;
252 -> 300 ;
301 [label="squared_error = 0.0\nsamples = 1\nvalue = 11.9", fillcolor="#eead7e"] ;
300 -> 301 ;
302 [label="squared_error = -0.0\nsamples = 1\nvalue = 11.8", fillcolor="#efaf82"] ;
300 -> 302 ;
303 [label="citric acid <= 0.32\nsquared_error = 0.13\nsamples = 7\nvalue = 12.89", fillcolor="#ea985e"] ;
251 -> 303 ;
304 [label="fixed acidity <= 6.9\nsquared_error = 0.06\nsamples = 5\nvalue = 12.75", fillcolor="#ea9b62"] ;
303 -> 304 ;
305 [label="residual sugar <= 2.75\nsquared_error = 0.01\nsamples = 4\nvalue = 12.66", fillcolor="#eb9d65"] ;
304 -> 305 ;
306 [label="squared_error = 0.0\nsamples = 2\nvalue = 12.6", fillcolor="#eb9e67"] ;
305 -> 306 ;
307 [label="volatile acidity <= 0.42\nsquared_error = 0.0\nsamples = 2\nvalue = 12.73", fillcolor="#ea9c63"] ;
305 -> 307 ;
308 [label="squared_error = 0.0\nsamples = 1\nvalue = 12.8", fillcolor="#ea9a61"] ;
307 -> 308 ;
309 [label="squared_error = -0.0\nsamples = 1\nvalue = 12.7", fillcolor="#eb9c64"] ;
307 -> 309 ;
310 [label="squared_error = -0.0\nsamples = 1\nvalue = 13.4", fillcolor="#e88e4d"] ;
304 -> 310 ;
311 [label="free sulfur dioxide <= 25.0\nsquared_error = 0.0\nsamples = 2\nvalue = 13.45", fillcolor="#e78d4b"] ;
303 -> 311 ;
312 [label="squared_error = 0.0\nsamples = 1\nvalue = 13.4", fillcolor="#e88e4d"] ;
311 -> 312 ;
313 [label="squared_error = 0.0\nsamples = 1\nvalue = 13.5", fillcolor="#e78c4a"] ;
311 -> 313 ;
314 [label="chlorides <= 0.03\nsquared_error = 0.1\nsamples = 23\nvalue = 12.94", fillcolor="#ea975c"] ;
228 -> 314 ;
315 [label="chlorides <= 0.03\nsquared_error = 0.09\nsamples = 7\nvalue = 12.71", fillcolor="#eb9c64"] ;
314 -> 315 ;
316 [label="residual sugar <= 4.85\nsquared_error = 0.06\nsamples = 5\nvalue = 12.89", fillcolor="#ea985e"] ;
315 -> 316 ;
317 [label="squared_error = -0.0\nsamples = 2\nvalue = 12.7", fillcolor="#eb9c64"] ;
316 -> 317 ;
318 [label="residual sugar <= 5.72\nsquared_error = 0.04\nsamples = 3\nvalue = 13.13", fillcolor="#e99356"] ;
316 -> 318 ;
319 [label="squared_error = 0.0\nsamples = 2\nvalue = 13.0", fillcolor="#e9965a"] ;
318 -> 319 ;
320 [label="squared_error = -0.0\nsamples = 1\nvalue = 13.4", fillcolor="#e88e4d"] ;
318 -> 320 ;
321 [label="sulphates <= 0.39\nsquared_error = 0.0\nsamples = 2\nvalue = 12.4", fillcolor="#eca36e"] ;
315 -> 321 ;
322 [label="squared_error = 0.0\nsamples = 1\nvalue = 12.4", fillcolor="#eca36e"] ;
321 -> 322 ;
323 [label="squared_error = 0.0\nsamples = 1\nvalue = 12.4", fillcolor="#eca36e"] ;
321 -> 323 ;
324 [label="citric acid <= 0.29\nsquared_error = 0.07\nsamples = 16\nvalue = 13.07", fillcolor="#e99558"] ;
314 -> 324 ;
325 [label="chlorides <= 0.04\nsquared_error = 0.03\nsamples = 9\nvalue = 12.91", fillcolor="#ea985d"] ;
324 -> 325 ;
326 [label="pH <= 3.36\nsquared_error = 0.01\nsamples = 7\nvalue = 12.99", fillcolor="#e9965a"] ;
325 -> 326 ;
327 [label="density <= 0.99\nsquared_error = 0.0\nsamples = 6\nvalue = 13.01", fillcolor="#e9965a"] ;
326 -> 327 ;
328 [label="squared_error = 0.0\nsamples = 2\nvalue = 13.1", fillcolor="#e99457"] ;
327 -> 328 ;
329 [label="density <= 0.99\nsquared_error = 0.0\nsamples = 4\nvalue = 12.98", fillcolor="#e9965b"] ;
327 -> 329 ;
330 [label="squared_error = 0.0\nsamples = 1\nvalue = 12.89", fillcolor="#ea985e"] ;
329 -> 330 ;
331 [label="squared_error = 0.0\nsamples = 3\nvalue = 13.0", fillcolor="#e9965a"] ;
329 -> 331 ;
332 [label="squared_error = 0.0\nsamples = 1\nvalue = 12.8", fillcolor="#ea9a61"] ;
326 -> 332 ;
333 [label="citric acid <= 0.26\nsquared_error = 0.0\nsamples = 2\nvalue = 12.6", fillcolor="#eb9e67"] ;
325 -> 333 ;
334 [label="squared_error = 0.0\nsamples = 1\nvalue = 12.6", fillcolor="#eb9e67"] ;
333 -> 334 ;
335 [label="squared_error = 0.0\nsamples = 1\nvalue = 12.6", fillcolor="#eb9e67"] ;
333 -> 335 ;
336 [label="citric acid <= 0.36\nsquared_error = 0.06\nsamples = 7\nvalue = 13.21", fillcolor="#e89253"] ;
324 -> 336 ;
337 [label="total sulfur dioxide <= 116.0\nsquared_error = 0.0\nsamples = 3\nvalue = 13.5", fillcolor="#e78c4a"] ;
336 -> 337 ;
338 [label="density <= 0.99\nsquared_error = 0.0\nsamples = 2\nvalue = 13.47", fillcolor="#e78c4b"] ;
337 -> 338 ;
339 [label="squared_error = 0.0\nsamples = 1\nvalue = 13.4", fillcolor="#e88e4d"] ;
338 -> 339 ;
340 [label="squared_error = -0.0\nsamples = 1\nvalue = 13.5", fillcolor="#e78c4a"] ;
338 -> 340 ;
341 [label="squared_error = 0.0\nsamples = 1\nvalue = 13.6", fillcolor="#e78946"] ;
337 -> 341 ;
342 [label="free sulfur dioxide <= 47.5\nsquared_error = 0.01\nsamples = 4\nvalue = 13.04", fillcolor="#e99559"] ;
336 -> 342 ;
343 [label="squared_error = 0.0\nsamples = 3\nvalue = 13.1", fillcolor="#e99457"] ;
342 -> 343 ;
344 [label="squared_error = 0.0\nsamples = 1\nvalue = 12.9", fillcolor="#ea985d"] ;
342 -> 344 ;
345 [label="residual sugar <= 1.75\nsquared_error = 0.65\nsamples = 585\nvalue = 11.38", fillcolor="#f0b890"] ;
1 -> 345 ;
346 [label="density <= 0.99\nsquared_error = 0.46\nsamples = 280\nvalue = 10.93", fillcolor="#f2c19e"] ;
345 -> 346 ;
347 [label="density <= 0.99\nsquared_error = 0.26\nsamples = 183\nvalue = 11.23", fillcolor="#f1bb95"] ;
346 -> 347 ;
348 [label="residual sugar <= 1.45\nsquared_error = 0.28\nsamples = 54\nvalue = 11.5", fillcolor="#f0b68c"] ;
347 -> 348 ;
349 [label="fixed acidity <= 6.45\nsquared_error = 0.17\nsamples = 42\nvalue = 11.35", fillcolor="#f1b991"] ;
348 -> 349 ;
350 [label="citric acid <= 0.28\nsquared_error = 0.04\nsamples = 24\nvalue = 11.11", fillcolor="#f2be98"] ;
349 -> 350 ;
351 [label="sulphates <= 0.45\nsquared_error = 0.02\nsamples = 8\nvalue = 10.98", fillcolor="#f2c19d"] ;
350 -> 351 ;
352 [label="citric acid <= 0.13\nsquared_error = 0.01\nsamples = 6\nvalue = 10.9", fillcolor="#f2c29f"] ;
351 -> 352 ;
353 [label="squared_error = -0.0\nsamples = 3\nvalue = 10.8", fillcolor="#f3c4a3"] ;
352 -> 353 ;
354 [label="total sulfur dioxide <= 93.5\nsquared_error = 0.0\nsamples = 3\nvalue = 10.97", fillcolor="#f2c19d"] ;
352 -> 354 ;
355 [label="squared_error = 0.0\nsamples = 1\nvalue = 10.9", fillcolor="#f2c29f"] ;
354 -> 355 ;
356 [label="squared_error = 0.0\nsamples = 2\nvalue = 11.0", fillcolor="#f2c09c"] ;
354 -> 356 ;
357 [label="total sulfur dioxide <= 59.5\nsquared_error = 0.0\nsamples = 2\nvalue = 11.2", fillcolor="#f1bc95"] ;
351 -> 357 ;
358 [label="squared_error = 0.0\nsamples = 1\nvalue = 11.2", fillcolor="#f1bc95"] ;
357 -> 358 ;
359 [label="squared_error = 0.0\nsamples = 1\nvalue = 11.2", fillcolor="#f1bc95"] ;
357 -> 359 ;
360 [label="pH <= 3.25\nsquared_error = 0.02\nsamples = 16\nvalue = 11.25", fillcolor="#f1bb94"] ;
350 -> 360 ;
361 [label="density <= 0.99\nsquared_error = 0.01\nsamples = 10\nvalue = 11.17", fillcolor="#f1bc96"] ;
360 -> 361 ;
362 [label="total sulfur dioxide <= 128.5\nsquared_error = 0.0\nsamples = 8\nvalue = 11.22", fillcolor="#f1bb95"] ;
361 -> 362 ;
363 [label="squared_error = -0.0\nsamples = 3\nvalue = 11.3", fillcolor="#f1ba92"] ;
362 -> 363 ;
364 [label="fixed acidity <= 6.25\nsquared_error = 0.0\nsamples = 5\nvalue = 11.19", fillcolor="#f1bc96"] ;
362 -> 364 ;
365 [label="squared_error = 0.0\nsamples = 1\nvalue = 11.1", fillcolor="#f2be99"] ;
364 -> 365 ;
366 [label="squared_error = -0.0\nsamples = 4\nvalue = 11.2", fillcolor="#f1bc95"] ;
364 -> 366 ;
367 [label="squared_error = 0.0\nsamples = 2\nvalue = 11.0", fillcolor="#f2c09c"] ;
361 -> 367 ;
368 [label="total sulfur dioxide <= 122.5\nsquared_error = 0.01\nsamples = 6\nvalue = 11.42", fillcolor="#f0b78e"] ;
360 -> 368 ;
369 [label="density <= 0.99\nsquared_error = 0.0\nsamples = 4\nvalue = 11.35", fillcolor="#f0b990"] ;
368 -> 369 ;
370 [label="squared_error = 0.0\nsamples = 2\nvalue = 11.4", fillcolor="#f0b88f"] ;
369 -> 370 ;
371 [label="residual sugar <= 1.1\nsquared_error = 0.0\nsamples = 2\nvalue = 11.3", fillcolor="#f1ba92"] ;
369 -> 371 ;
372 [label="squared_error = 0.0\nsamples = 1\nvalue = 11.3", fillcolor="#f1ba92"] ;
371 -> 372 ;
373 [label="squared_error = 0.0\nsamples = 1\nvalue = 11.3", fillcolor="#f1ba92"] ;
371 -> 373 ;
374 [label="citric acid <= 0.32\nsquared_error = 0.0\nsamples = 2\nvalue = 11.55", fillcolor="#f0b48a"] ;
368 -> 374 ;
375 [label="squared_error = 0.0\nsamples = 1\nvalue = 11.5", fillcolor="#f0b68c"] ;
374 -> 375 ;
376 [label="squared_error = -0.0\nsamples = 1\nvalue = 11.6", fillcolor="#efb388"] ;
374 -> 376 ;
377 [label="residual sugar <= 1.15\nsquared_error = 0.18\nsamples = 18\nvalue = 11.58", fillcolor="#efb489"] ;
349 -> 377 ;
378 [label="citric acid <= 0.28\nsquared_error = 0.03\nsamples = 11\nvalue = 11.34", fillcolor="#f1b991"] ;
377 -> 378 ;
379 [label="pH <= 3.23\nsquared_error = 0.01\nsamples = 3\nvalue = 11.07", fillcolor="#f2bf9a"] ;
378 -> 379 ;
380 [label="pH <= 3.07\nsquared_error = 0.0\nsamples = 2\nvalue = 11.13", fillcolor="#f1bd98"] ;
379 -> 380 ;
381 [label="squared_error = 0.0\nsamples = 1\nvalue = 11.1", fillcolor="#f2be99"] ;
380 -> 381 ;
382 [label="squared_error = -0.0\nsamples = 1\nvalue = 11.2", fillcolor="#f1bc95"] ;
380 -> 382 ;
383 [label="squared_error = 0.0\nsamples = 1\nvalue = 11.0", fillcolor="#f2c09c"] ;
379 -> 383 ;
384 [label="volatile acidity <= 0.33\nsquared_error = 0.01\nsamples = 8\nvalue = 11.44", fillcolor="#f0b78e"] ;
378 -> 384 ;
385 [label="squared_error = 0.0\nsamples = 7\nvalue = 11.4", fillcolor="#f0b88f"] ;
384 -> 385 ;
386 [label="squared_error = -0.0\nsamples = 1\nvalue = 11.7", fillcolor="#efb185"] ;
384 -> 386 ;
387 [label="density <= 0.99\nsquared_error = 0.19\nsamples = 7\nvalue = 11.91", fillcolor="#eead7e"] ;
377 -> 387 ;
388 [label="chlorides <= 0.04\nsquared_error = 0.08\nsamples = 4\nvalue = 11.6", fillcolor="#efb488"] ;
387 -> 388 ;
389 [label="squared_error = 0.0\nsamples = 1\nvalue = 11.3", fillcolor="#f1ba92"] ;
388 -> 389 ;
390 [label="quality <= 5.5\nsquared_error = 0.04\nsamples = 3\nvalue = 11.79", fillcolor="#efaf82"] ;
388 -> 390 ;
391 [label="squared_error = 0.0\nsamples = 1\nvalue = 12.25", fillcolor="#eda673"] ;
390 -> 391 ;
392 [label="squared_error = -0.0\nsamples = 2\nvalue = 11.7", fillcolor="#efb185"] ;
390 -> 392 ;
393 [label="residual sugar <= 1.25\nsquared_error = 0.01\nsamples = 3\nvalue = 12.36", fillcolor="#eca46f"] ;
387 -> 393 ;
394 [label="squared_error = 0.0\nsamples = 1\nvalue = 12.1", fillcolor="#eda978"] ;
393 -> 394 ;
395 [label="squared_error = 0.0\nsamples = 2\nvalue = 12.4", fillcolor="#eca36e"] ;
393 -> 395 ;
396 [label="fixed acidity <= 6.75\nsquared_error = 0.19\nsamples = 12\nvalue = 12.2", fillcolor="#eda774"] ;
348 -> 396 ;
397 [label="volatile acidity <= 0.18\nsquared_error = 0.06\nsamples = 4\nvalue = 11.6", fillcolor="#efb388"] ;
396 -> 397 ;
398 [label="squared_error = 0.0\nsamples = 1\nvalue = 11.4", fillcolor="#f0b88f"] ;
397 -> 398 ;
399 [label="citric acid <= 0.2\nsquared_error = 0.06\nsamples = 3\nvalue = 11.73", fillcolor="#efb184"] ;
397 -> 399 ;
400 [label="squared_error = 0.0\nsamples = 1\nvalue = 11.4", fillcolor="#f0b88f"] ;
399 -> 400 ;
401 [label="squared_error = -0.0\nsamples = 2\nvalue = 11.9", fillcolor="#eead7e"] ;
399 -> 401 ;
402 [label="pH <= 3.02\nsquared_error = 0.03\nsamples = 8\nvalue = 12.45", fillcolor="#eca26c"] ;
396 -> 402 ;
403 [label="squared_error = 0.0\nsamples = 1\nvalue = 11.9", fillcolor="#eead7e"] ;
402 -> 403 ;
404 [label="free sulfur dioxide <= 29.5\nsquared_error = 0.01\nsamples = 7\nvalue = 12.5", fillcolor="#eca06a"] ;
402 -> 404 ;
405 [label="squared_error = 0.0\nsamples = 1\nvalue = 12.7", fillcolor="#eb9c64"] ;
404 -> 405 ;
406 [label="density <= 0.99\nsquared_error = 0.0\nsamples = 6\nvalue = 12.48", fillcolor="#eca16b"] ;
404 -> 406 ;
407 [label="sulphates <= 0.51\nsquared_error = 0.01\nsamples = 2\nvalue = 12.4", fillcolor="#eca36e"] ;
406 -> 407 ;
408 [label="squared_error = 0.0\nsamples = 1\nvalue = 12.3", fillcolor="#eca571"] ;
407 -> 408 ;
409 [label="squared_error = 0.0\nsamples = 1\nvalue = 12.5", fillcolor="#eca06a"] ;
407 -> 409 ;
410 [label="squared_error = 0.0\nsamples = 4\nvalue = 12.5", fillcolor="#eca06a"] ;
406 -> 410 ;
411 [label="fixed acidity <= 5.95\nsquared_error = 0.2\nsamples = 129\nvalue = 11.09", fillcolor="#f2be99"] ;
347 -> 411 ;
412 [label="residual sugar <= 0.95\nsquared_error = 0.17\nsamples = 17\nvalue = 10.56", fillcolor="#f4c9ab"] ;
411 -> 412 ;
413 [label="citric acid <= 0.42\nsquared_error = 0.01\nsamples = 2\nvalue = 9.77", fillcolor="#f7dac5"] ;
412 -> 413 ;
414 [label="squared_error = 0.0\nsamples = 1\nvalue = 9.9", fillcolor="#f7d7c0"] ;
413 -> 414 ;
415 [label="squared_error = 0.0\nsamples = 1\nvalue = 9.7", fillcolor="#f8dbc7"] ;
413 -> 415 ;
416 [label="free sulfur dioxide <= 13.0\nsquared_error = 0.11\nsamples = 15\nvalue = 10.65", fillcolor="#f4c7a7"] ;
412 -> 416 ;
417 [label="pH <= 3.47\nsquared_error = 0.1\nsamples = 3\nvalue = 11.0", fillcolor="#f2c09c"] ;
416 -> 417 ;
418 [label="total sulfur dioxide <= 105.5\nsquared_error = 0.02\nsamples = 2\nvalue = 11.3", fillcolor="#f1ba92"] ;
417 -> 418 ;
419 [label="squared_error = 0.0\nsamples = 1\nvalue = 11.2", fillcolor="#f1bc95"] ;
418 -> 419 ;
420 [label="squared_error = 0.0\nsamples = 1\nvalue = 11.5", fillcolor="#f0b68c"] ;
418 -> 420 ;
421 [label="squared_error = 0.0\nsamples = 1\nvalue = 10.7", fillcolor="#f3c6a6"] ;
417 -> 421 ;
422 [label="citric acid <= 0.31\nsquared_error = 0.06\nsamples = 12\nvalue = 10.54", fillcolor="#f4caab"] ;
416 -> 422 ;
423 [label="citric acid <= 0.27\nsquared_error = 0.03\nsamples = 6\nvalue = 10.78", fillcolor="#f3c5a3"] ;
422 -> 423 ;
424 [label="total sulfur dioxide <= 125.0\nsquared_error = 0.01\nsamples = 3\nvalue = 10.66", fillcolor="#f3c7a7"] ;
423 -> 424 ;
425 [label="squared_error = 0.0\nsamples = 1\nvalue = 10.5", fillcolor="#f4caac"] ;
424 -> 425 ;
426 [label="squared_error = 0.0\nsamples = 2\nvalue = 10.7", fillcolor="#f3c6a6"] ;
424 -> 426 ;
427 [label="citric acid <= 0.28\nsquared_error = 0.0\nsamples = 3\nvalue = 10.97", fillcolor="#f2c19d"] ;
423 -> 427 ;
428 [label="squared_error = 0.0\nsamples = 1\nvalue = 10.9", fillcolor="#f2c29f"] ;
427 -> 428 ;
429 [label="squared_error = 0.0\nsamples = 2\nvalue = 11.0", fillcolor="#f2c09c"] ;
427 -> 429 ;
430 [label="pH <= 3.26\nsquared_error = 0.02\nsamples = 6\nvalue = 10.37", fillcolor="#f5cdb1"] ;
422 -> 430 ;
431 [label="sulphates <= 0.51\nsquared_error = 0.0\nsamples = 2\nvalue = 10.24", fillcolor="#f5d0b5"] ;
430 -> 431 ;
432 [label="squared_error = -0.0\nsamples = 1\nvalue = 10.2", fillcolor="#f5d1b6"] ;
431 -> 432 ;
433 [label="squared_error = -0.0\nsamples = 1\nvalue = 10.3", fillcolor="#f5cfb3"] ;
431 -> 433 ;
434 [label="density <= 0.99\nsquared_error = 0.01\nsamples = 4\nvalue = 10.48", fillcolor="#f4cbad"] ;
430 -> 434 ;
435 [label="squared_error = 0.0\nsamples = 1\nvalue = 10.4", fillcolor="#f5cdb0"] ;
434 -> 435 ;
436 [label="residual sugar <= 1.5\nsquared_error = 0.0\nsamples = 3\nvalue = 10.57", fillcolor="#f4c9aa"] ;
434 -> 436 ;
437 [label="squared_error = -0.0\nsamples = 2\nvalue = 10.6", fillcolor="#f4c8a9"] ;
436 -> 437 ;
438 [label="squared_error = 0.0\nsamples = 1\nvalue = 10.5", fillcolor="#f4caac"] ;
436 -> 438 ;
439 [label="pH <= 3.51\nsquared_error = 0.15\nsamples = 112\nvalue = 11.18", fillcolor="#f1bc96"] ;
411 -> 439 ;
440 [label="pH <= 2.99\nsquared_error = 0.13\nsamples = 111\nvalue = 11.17", fillcolor="#f1bc96"] ;
439 -> 440 ;
441 [label="fixed acidity <= 8.85\nsquared_error = 0.05\nsamples = 9\nvalue = 10.7", fillcolor="#f3c6a6"] ;
440 -> 441 ;
442 [label="chlorides <= 0.05\nsquared_error = 0.02\nsamples = 8\nvalue = 10.64", fillcolor="#f4c8a8"] ;
441 -> 442 ;
443 [label="pH <= 2.89\nsquared_error = 0.01\nsamples = 7\nvalue = 10.57", fillcolor="#f4c9aa"] ;
442 -> 443 ;
444 [label="squared_error = 0.0\nsamples = 1\nvalue = 10.8", fillcolor="#f3c4a3"] ;
443 -> 444 ;
445 [label="volatile acidity <= 0.24\nsquared_error = 0.0\nsamples = 6\nvalue = 10.53", fillcolor="#f4caab"] ;
443 -> 445 ;
446 [label="squared_error = 0.0\nsamples = 3\nvalue = 10.5", fillcolor="#f4caac"] ;
445 -> 446 ;
447 [label="free sulfur dioxide <= 29.5\nsquared_error = 0.0\nsamples = 3\nvalue = 10.57", fillcolor="#f4c9aa"] ;
445 -> 447 ;
448 [label="squared_error = -0.0\nsamples = 2\nvalue = 10.6", fillcolor="#f4c8a9"] ;
447 -> 448 ;
449 [label="squared_error = 0.0\nsamples = 1\nvalue = 10.5", fillcolor="#f4caac"] ;
447 -> 449 ;
450 [label="squared_error = -0.0\nsamples = 1\nvalue = 10.8", fillcolor="#f3c4a3"] ;
442 -> 450 ;
451 [label="squared_error = 0.0\nsamples = 1\nvalue = 11.3", fillcolor="#f1ba92"] ;
441 -> 451 ;
452 [label="total sulfur dioxide <= 69.0\nsquared_error = 0.12\nsamples = 102\nvalue = 11.2", fillcolor="#f1bc95"] ;
440 -> 452 ;
453 [label="total sulfur dioxide <= 59.0\nsquared_error = 0.03\nsamples = 8\nvalue = 10.85", fillcolor="#f3c3a1"] ;
452 -> 453 ;
454 [label="chlorides <= 0.04\nsquared_error = 0.01\nsamples = 4\nvalue = 10.98", fillcolor="#f2c09d"] ;
453 -> 454 ;
455 [label="pH <= 3.12\nsquared_error = 0.0\nsamples = 3\nvalue = 10.94", fillcolor="#f2c19e"] ;
454 -> 455 ;
456 [label="squared_error = 0.0\nsamples = 2\nvalue = 11.0", fillcolor="#f2c09c"] ;
455 -> 456 ;
457 [label="squared_error = 0.0\nsamples = 1\nvalue = 10.9", fillcolor="#f2c29f"] ;
455 -> 457 ;
458 [label="squared_error = -0.0\nsamples = 1\nvalue = 11.2", fillcolor="#f1bc95"] ;
454 -> 458 ;
459 [label="density <= 0.99\nsquared_error = 0.01\nsamples = 4\nvalue = 10.72", fillcolor="#f3c6a5"] ;
453 -> 459 ;
460 [label="density <= 0.99\nsquared_error = 0.0\nsamples = 3\nvalue = 10.83", fillcolor="#f3c4a2"] ;
459 -> 460 ;
461 [label="squared_error = 0.0\nsamples = 2\nvalue = 10.8", fillcolor="#f3c4a3"] ;
460 -> 461 ;
462 [label="squared_error = 0.0\nsamples = 1\nvalue = 10.9", fillcolor="#f2c29f"] ;
460 -> 462 ;
463 [label="squared_error = 0.0\nsamples = 1\nvalue = 10.6", fillcolor="#f4c8a9"] ;
459 -> 463 ;
464 [label="volatile acidity <= 0.31\nsquared_error = 0.12\nsamples = 94\nvalue = 11.23", fillcolor="#f1bb94"] ;
452 -> 464 ;
465 [label="pH <= 3.27\nsquared_error = 0.08\nsamples = 83\nvalue = 11.19", fillcolor="#f1bc96"] ;
464 -> 465 ;
466 [label="fixed acidity <= 7.35\nsquared_error = 0.06\nsamples = 56\nvalue = 11.12", fillcolor="#f1bd98"] ;
465 -> 466 ;
467 [label="free sulfur dioxide <= 30.5\nsquared_error = 0.06\nsamples = 31\nvalue = 11.01", fillcolor="#f2c09c"] ;
466 -> 467 ;
468 [label="citric acid <= 0.4\nsquared_error = 0.02\nsamples = 14\nvalue = 11.12", fillcolor="#f1be98"] ;
467 -> 468 ;
469 [label="chlorides <= 0.03\nsquared_error = 0.01\nsamples = 12\nvalue = 11.15", fillcolor="#f1bd97"] ;
468 -> 469 ;
470 [label="density <= 0.99\nsquared_error = 0.02\nsamples = 2\nvalue = 10.95", fillcolor="#f2c19e"] ;
469 -> 470 ;
471 [label="squared_error = 0.0\nsamples = 1\nvalue = 11.1", fillcolor="#f2be99"] ;
470 -> 471 ;
472 [label="squared_error = 0.0\nsamples = 1\nvalue = 10.8", fillcolor="#f3c4a3"] ;
470 -> 472 ;
473 [label="total sulfur dioxide <= 82.0\nsquared_error = 0.01\nsamples = 10\nvalue = 11.18", fillcolor="#f1bc96"] ;
469 -> 473 ;
474 [label="squared_error = 0.0\nsamples = 1\nvalue = 11.0", fillcolor="#f2c09c"] ;
473 -> 474 ;
475 [label="chlorides <= 0.05\nsquared_error = 0.0\nsamples = 9\nvalue = 11.19", fillcolor="#f1bc96"] ;
473 -> 475 ;
476 [label="chlorides <= 0.04\nsquared_error = 0.0\nsamples = 7\nvalue = 11.22", fillcolor="#f1bb95"] ;
475 -> 476 ;
477 [label="squared_error = 0.0\nsamples = 1\nvalue = 11.3", fillcolor="#f1ba92"] ;
476 -> 477 ;
478 [label="fixed acidity <= 7.2\nsquared_error = 0.0\nsamples = 6\nvalue = 11.21", fillcolor="#f1bc95"] ;
476 -> 478 ;
479 [label="squared_error = 0.0\nsamples = 5\nvalue = 11.2", fillcolor="#f1bc95"] ;
478 -> 479 ;
480 [label="squared_error = -0.0\nsamples = 1\nvalue = 11.3", fillcolor="#f1ba92"] ;
478 -> 480 ;
481 [label="density <= 0.99\nsquared_error = 0.0\nsamples = 2\nvalue = 11.1", fillcolor="#f2be99"] ;
475 -> 481 ;
482 [label="squared_error = 0.0\nsamples = 1\nvalue = 11.1", fillcolor="#f2be99"] ;
481 -> 482 ;
483 [label="squared_error = 0.0\nsamples = 1\nvalue = 11.1", fillcolor="#f2be99"] ;
481 -> 483 ;
484 [label="pH <= 3.22\nsquared_error = 0.0\nsamples = 2\nvalue = 10.95", fillcolor="#f2c19e"] ;
468 -> 484 ;
485 [label="squared_error = 0.0\nsamples = 1\nvalue = 11.0", fillcolor="#f2c09c"] ;
484 -> 485 ;
486 [label="squared_error = 0.0\nsamples = 1\nvalue = 10.9", fillcolor="#f2c29f"] ;
484 -> 486 ;
487 [label="sulphates <= 0.5\nsquared_error = 0.08\nsamples = 17\nvalue = 10.9", fillcolor="#f2c29f"] ;
467 -> 487 ;
488 [label="residual sugar <= 1.15\nsquared_error = 0.05\nsamples = 9\nvalue = 10.77", fillcolor="#f3c5a3"] ;
487 -> 488 ;
489 [label="squared_error = 0.0\nsamples = 4\nvalue = 11.0", fillcolor="#f2c09c"] ;
488 -> 489 ;
490 [label="fixed acidity <= 7.25\nsquared_error = 0.01\nsamples = 5\nvalue = 10.58", fillcolor="#f4c9aa"] ;
488 -> 490 ;
491 [label="squared_error = 0.0\nsamples = 4\nvalue = 10.5", fillcolor="#f4caac"] ;
490 -> 491 ;
492 [label="squared_error = 0.0\nsamples = 1\nvalue = 10.7", fillcolor="#f3c6a6"] ;
490 -> 492 ;
493 [label="fixed acidity <= 6.42\nsquared_error = 0.04\nsamples = 8\nvalue = 11.12", fillcolor="#f1bd98"] ;
487 -> 493 ;
494 [label="squared_error = 0.0\nsamples = 1\nvalue = 10.7", fillcolor="#f3c6a6"] ;
493 -> 494 ;
495 [label="volatile acidity <= 0.25\nsquared_error = 0.02\nsamples = 7\nvalue = 11.19", fillcolor="#f1bc96"] ;
493 -> 495 ;
496 [label="sulphates <= 0.74\nsquared_error = 0.0\nsamples = 5\nvalue = 11.1", fillcolor="#f2be99"] ;
495 -> 496 ;
497 [label="total sulfur dioxide <= 110.5\nsquared_error = 0.0\nsamples = 4\nvalue = 11.08", fillcolor="#f2be9a"] ;
496 -> 497 ;
498 [label="squared_error = 0.0\nsamples = 1\nvalue = 11.0", fillcolor="#f2c09c"] ;
497 -> 498 ;
499 [label="squared_error = 0.0\nsamples = 3\nvalue = 11.1", fillcolor="#f2be99"] ;
497 -> 499 ;
500 [label="squared_error = -0.0\nsamples = 1\nvalue = 11.2", fillcolor="#f1bc95"] ;
496 -> 500 ;
501 [label="squared_error = 0.0\nsamples = 2\nvalue = 11.4", fillcolor="#f0b88f"] ;
495 -> 501 ;
502 [label="density <= 0.99\nsquared_error = 0.04\nsamples = 25\nvalue = 11.23", fillcolor="#f1bb94"] ;
466 -> 502 ;
503 [label="density <= 0.99\nsquared_error = 0.03\nsamples = 22\nvalue = 11.27", fillcolor="#f1ba93"] ;
502 -> 503 ;
504 [label="squared_error = 0.0\nsamples = 1\nvalue = 11.9", fillcolor="#eead7e"] ;
503 -> 504 ;
505 [label="free sulfur dioxide <= 57.0\nsquared_error = 0.03\nsamples = 21\nvalue = 11.25", fillcolor="#f1bb94"] ;
503 -> 505 ;
506 [label="citric acid <= 0.62\nsquared_error = 0.02\nsamples = 20\nvalue = 11.27", fillcolor="#f1ba93"] ;
505 -> 506 ;
507 [label="residual sugar <= 1.3\nsquared_error = 0.01\nsamples = 19\nvalue = 11.28", fillcolor="#f1ba93"] ;
506 -> 507 ;
508 [label="fixed acidity <= 8.9\nsquared_error = 0.01\nsamples = 15\nvalue = 11.25", fillcolor="#f1bb94"] ;
507 -> 508 ;
509 [label="free sulfur dioxide <= 14.0\nsquared_error = 0.01\nsamples = 14\nvalue = 11.24", fillcolor="#f1bb94"] ;
508 -> 509 ;
510 [label="volatile acidity <= 0.23\nsquared_error = 0.0\nsamples = 2\nvalue = 11.35", fillcolor="#f0b990"] ;
509 -> 510 ;
511 [label="squared_error = -0.0\nsamples = 1\nvalue = 11.3", fillcolor="#f1ba92"] ;
510 -> 511 ;
512 [label="squared_error = 0.0\nsamples = 1\nvalue = 11.4", fillcolor="#f0b88f"] ;
510 -> 512 ;
513 [label="sulphates <= 0.53\nsquared_error = 0.0\nsamples = 12\nvalue = 11.21", fillcolor="#f1bc95"] ;
509 -> 513 ;
514 [label="total sulfur dioxide <= 135.5\nsquared_error = 0.0\nsamples = 8\nvalue = 11.18", fillcolor="#f1bc96"] ;
513 -> 514 ;
515 [label="citric acid <= 0.42\nsquared_error = 0.0\nsamples = 4\nvalue = 11.12", fillcolor="#f1bd98"] ;
514 -> 515 ;
516 [label="chlorides <= 0.04\nsquared_error = 0.0\nsamples = 3\nvalue = 11.1", fillcolor="#f2be99"] ;
515 -> 516 ;
517 [label="squared_error = 0.0\nsamples = 1\nvalue = 11.1", fillcolor="#f2be99"] ;
516 -> 517 ;
518 [label="squared_error = 0.0\nsamples = 2\nvalue = 11.1", fillcolor="#f2be99"] ;
516 -> 518 ;
519 [label="squared_error = -0.0\nsamples = 1\nvalue = 11.2", fillcolor="#f1bc95"] ;
515 -> 519 ;
520 [label="citric acid <= 0.38\nsquared_error = 0.0\nsamples = 4\nvalue = 11.2", fillcolor="#f1bc95"] ;
514 -> 520 ;
521 [label="squared_error = 0.0\nsamples = 1\nvalue = 11.2", fillcolor="#f1bc95"] ;
520 -> 521 ;
522 [label="free sulfur dioxide <= 26.5\nsquared_error = 0.0\nsamples = 3\nvalue = 11.2", fillcolor="#f1bc95"] ;
520 -> 522 ;
523 [label="squared_error = 0.0\nsamples = 2\nvalue = 11.2", fillcolor="#f1bc95"] ;
522 -> 523 ;
524 [label="squared_error = -0.0\nsamples = 1\nvalue = 11.2", fillcolor="#f1bc95"] ;
522 -> 524 ;
525 [label="chlorides <= 0.03\nsquared_error = 0.0\nsamples = 4\nvalue = 11.29", fillcolor="#f1ba93"] ;
513 -> 525 ;
526 [label="squared_error = 0.0\nsamples = 1\nvalue = 11.2", fillcolor="#f1bc95"] ;
525 -> 526 ;
527 [label="quality <= 6.0\nsquared_error = 0.0\nsamples = 3\nvalue = 11.3", fillcolor="#f1ba92"] ;
525 -> 527 ;
528 [label="squared_error = -0.0\nsamples = 2\nvalue = 11.3", fillcolor="#f1ba92"] ;
527 -> 528 ;
529 [label="squared_error = -0.0\nsamples = 1\nvalue = 11.3", fillcolor="#f1ba92"] ;
527 -> 529 ;
530 [label="squared_error = -0.0\nsamples = 1\nvalue = 11.6", fillcolor="#efb388"] ;
508 -> 530 ;
531 [label="density <= 0.99\nsquared_error = 0.01\nsamples = 4\nvalue = 11.41", fillcolor="#f0b78f"] ;
507 -> 531 ;
532 [label="squared_error = 0.0\nsamples = 1\nvalue = 11.3", fillcolor="#f1ba92"] ;
531 -> 532 ;
533 [label="pH <= 3.16\nsquared_error = 0.0\nsamples = 3\nvalue = 11.44", fillcolor="#f0b78d"] ;
531 -> 533 ;
534 [label="citric acid <= 0.31\nsquared_error = 0.0\nsamples = 2\nvalue = 11.42", fillcolor="#f0b78e"] ;
533 -> 534 ;
535 [label="squared_error = 0.0\nsamples = 1\nvalue = 11.43", fillcolor="#f0b78e"] ;
534 -> 535 ;
536 [label="squared_error = 0.0\nsamples = 1\nvalue = 11.4", fillcolor="#f0b88f"] ;
534 -> 536 ;
537 [label="squared_error = 0.0\nsamples = 1\nvalue = 11.5", fillcolor="#f0b68c"] ;
533 -> 537 ;
538 [label="squared_error = 0.0\nsamples = 1\nvalue = 10.8", fillcolor="#f3c4a3"] ;
506 -> 538 ;
539 [label="squared_error = -0.0\nsamples = 1\nvalue = 10.7", fillcolor="#f3c6a6"] ;
505 -> 539 ;
540 [label="pH <= 3.1\nsquared_error = 0.01\nsamples = 3\nvalue = 10.97", fillcolor="#f2c19d"] ;
502 -> 540 ;
541 [label="squared_error = 0.0\nsamples = 2\nvalue = 11.0", fillcolor="#f2c09c"] ;
540 -> 541 ;
542 [label="squared_error = 0.0\nsamples = 1\nvalue = 10.8", fillcolor="#f3c4a3"] ;
540 -> 542 ;
543 [label="citric acid <= 0.33\nsquared_error = 0.1\nsamples = 27\nvalue = 11.34", fillcolor="#f1b991"] ;
465 -> 543 ;
544 [label="density <= 0.99\nsquared_error = 0.02\nsamples = 11\nvalue = 11.11", fillcolor="#f2be98"] ;
543 -> 544 ;
545 [label="total sulfur dioxide <= 129.5\nsquared_error = 0.01\nsamples = 2\nvalue = 11.3", fillcolor="#f1ba92"] ;
544 -> 545 ;
546 [label="squared_error = 0.0\nsamples = 1\nvalue = 11.4", fillcolor="#f0b88f"] ;
545 -> 546 ;
547 [label="squared_error = -0.0\nsamples = 1\nvalue = 11.2", fillcolor="#f1bc95"] ;
545 -> 547 ;
548 [label="density <= 0.99\nsquared_error = 0.01\nsamples = 9\nvalue = 11.04", fillcolor="#f2bf9b"] ;
544 -> 548 ;
549 [label="squared_error = 0.0\nsamples = 1\nvalue = 10.8", fillcolor="#f3c4a3"] ;
548 -> 549 ;
550 [label="volatile acidity <= 0.15\nsquared_error = 0.0\nsamples = 8\nvalue = 11.06", fillcolor="#f2bf9a"] ;
548 -> 550 ;
551 [label="residual sugar <= 1.1\nsquared_error = 0.0\nsamples = 2\nvalue = 11.13", fillcolor="#f1bd98"] ;
550 -> 551 ;
552 [label="squared_error = 0.0\nsamples = 1\nvalue = 11.2", fillcolor="#f1bc95"] ;
551 -> 552 ;
553 [label="squared_error = -0.0\nsamples = 1\nvalue = 11.1", fillcolor="#f2be99"] ;
551 -> 553 ;
554 [label="sulphates <= 0.47\nsquared_error = 0.0\nsamples = 6\nvalue = 11.03", fillcolor="#f2bf9b"] ;
550 -> 554 ;
555 [label="total sulfur dioxide <= 101.5\nsquared_error = 0.0\nsamples = 3\nvalue = 11.07", fillcolor="#f2bf9a"] ;
554 -> 555 ;
556 [label="squared_error = 0.0\nsamples = 1\nvalue = 11.0", fillcolor="#f2c09c"] ;
555 -> 556 ;
557 [label="squared_error = -0.0\nsamples = 2\nvalue = 11.1", fillcolor="#f2be99"] ;
555 -> 557 ;
558 [label="citric acid <= 0.27\nsquared_error = 0.0\nsamples = 3\nvalue = 11.0", fillcolor="#f2c09c"] ;
554 -> 558 ;
559 [label="squared_error = 0.0\nsamples = 1\nvalue = 11.0", fillcolor="#f2c09c"] ;
558 -> 559 ;
560 [label="squared_error = 0.0\nsamples = 2\nvalue = 11.0", fillcolor="#f2c09c"] ;
558 -> 560 ;
561 [label="volatile acidity <= 0.27\nsquared_error = 0.09\nsamples = 16\nvalue = 11.5", fillcolor="#f0b68c"] ;
543 -> 561 ;
562 [label="sulphates <= 0.48\nsquared_error = 0.04\nsamples = 14\nvalue = 11.42", fillcolor="#f0b78e"] ;
561 -> 562 ;
563 [label="total sulfur dioxide <= 101.0\nsquared_error = 0.01\nsamples = 4\nvalue = 11.12", fillcolor="#f1bd98"] ;
562 -> 563 ;
564 [label="squared_error = 0.0\nsamples = 1\nvalue = 10.9", fillcolor="#f2c29f"] ;
563 -> 564 ;
565 [label="residual sugar <= 1.3\nsquared_error = 0.0\nsamples = 3\nvalue = 11.18", fillcolor="#f1bc96"] ;
563 -> 565 ;
566 [label="squared_error = -0.0\nsamples = 2\nvalue = 11.2", fillcolor="#f1bc95"] ;
565 -> 566 ;
567 [label="squared_error = 0.0\nsamples = 1\nvalue = 11.1", fillcolor="#f2be99"] ;
565 -> 567 ;
568 [label="chlorides <= 0.03\nsquared_error = 0.01\nsamples = 10\nvalue = 11.53", fillcolor="#f0b58b"] ;
562 -> 568 ;
569 [label="squared_error = 0.0\nsamples = 1\nvalue = 11.8", fillcolor="#efaf82"] ;
568 -> 569 ;
570 [label="quality <= 6.5\nsquared_error = 0.0\nsamples = 9\nvalue = 11.48", fillcolor="#f0b68c"] ;
568 -> 570 ;
571 [label="squared_error = 0.0\nsamples = 3\nvalue = 11.4", fillcolor="#f0b88f"] ;
570 -> 571 ;
572 [label="pH <= 3.3\nsquared_error = 0.0\nsamples = 6\nvalue = 11.51", fillcolor="#f0b58b"] ;
570 -> 572 ;
573 [label="squared_error = 0.0\nsamples = 1\nvalue = 11.6", fillcolor="#efb388"] ;
572 -> 573 ;
574 [label="squared_error = 0.0\nsamples = 5\nvalue = 11.5", fillcolor="#f0b68c"] ;
572 -> 574 ;
575 [label="density <= 0.99\nsquared_error = 0.08\nsamples = 2\nvalue = 12.0", fillcolor="#eeab7b"] ;
561 -> 575 ;
576 [label="squared_error = 0.0\nsamples = 1\nvalue = 12.2", fillcolor="#eda774"] ;
575 -> 576 ;
577 [label="squared_error = -0.0\nsamples = 1\nvalue = 11.6", fillcolor="#efb388"] ;
575 -> 577 ;
578 [label="volatile acidity <= 0.41\nsquared_error = 0.3\nsamples = 11\nvalue = 11.65", fillcolor="#efb286"] ;
464 -> 578 ;
579 [label="pH <= 3.13\nsquared_error = 0.13\nsamples = 9\nvalue = 11.84", fillcolor="#eeae80"] ;
578 -> 579 ;
580 [label="density <= 0.99\nsquared_error = 0.0\nsamples = 2\nvalue = 11.33", fillcolor="#f1b991"] ;
579 -> 580 ;
581 [label="squared_error = 0.0\nsamples = 1\nvalue = 11.4", fillcolor="#f0b88f"] ;
580 -> 581 ;
582 [label="squared_error = 0.0\nsamples = 1\nvalue = 11.3", fillcolor="#f1ba92"] ;
580 -> 582 ;
583 [label="volatile acidity <= 0.39\nsquared_error = 0.05\nsamples = 7\nvalue = 12.02", fillcolor="#eeaa7a"] ;
579 -> 583 ;
584 [label="citric acid <= 0.41\nsquared_error = 0.03\nsamples = 6\nvalue = 12.09", fillcolor="#eda978"] ;
583 -> 584 ;
585 [label="sulphates <= 0.63\nsquared_error = 0.02\nsamples = 5\nvalue = 12.03", fillcolor="#eeaa7a"] ;
584 -> 585 ;
586 [label="free sulfur dioxide <= 26.5\nsquared_error = 0.0\nsamples = 3\nvalue = 11.95", fillcolor="#eeac7d"] ;
585 -> 586 ;
587 [label="free sulfur dioxide <= 23.0\nsquared_error = 0.0\nsamples = 2\nvalue = 11.9", fillcolor="#eead7e"] ;
586 -> 587 ;
588 [label="squared_error = 0.0\nsamples = 1\nvalue = 11.9", fillcolor="#eead7e"] ;
587 -> 588 ;
589 [label="squared_error = 0.0\nsamples = 1\nvalue = 11.9", fillcolor="#eead7e"] ;
587 -> 589 ;
590 [label="squared_error = 0.0\nsamples = 1\nvalue = 12.0", fillcolor="#eeab7b"] ;
586 -> 590 ;
591 [label="squared_error = -0.0\nsamples = 2\nvalue = 12.2", fillcolor="#eda774"] ;
585 -> 591 ;
592 [label="squared_error = -0.0\nsamples = 1\nvalue = 12.4", fillcolor="#eca36e"] ;
584 -> 592 ;
593 [label="squared_error = 0.0\nsamples = 1\nvalue = 11.6", fillcolor="#efb388"] ;
583 -> 593 ;
594 [label="volatile acidity <= 0.44\nsquared_error = 0.02\nsamples = 2\nvalue = 10.65", fillcolor="#f4c7a8"] ;
578 -> 594 ;
595 [label="squared_error = 0.0\nsamples = 1\nvalue = 10.8", fillcolor="#f3c4a3"] ;
594 -> 595 ;
596 [label="squared_error = 0.0\nsamples = 1\nvalue = 10.5", fillcolor="#f4caac"] ;
594 -> 596 ;
597 [label="squared_error = -0.0\nsamples = 1\nvalue = 12.4", fillcolor="#eca36e"] ;
439 -> 597 ;
598 [label="volatile acidity <= 0.62\nsquared_error = 0.33\nsamples = 97\nvalue = 10.35", fillcolor="#f5ceb1"] ;
346 -> 598 ;
599 [label="residual sugar <= 1.05\nsquared_error = 0.27\nsamples = 96\nvalue = 10.33", fillcolor="#f5ceb2"] ;
598 -> 599 ;
600 [label="fixed acidity <= 6.25\nsquared_error = 0.22\nsamples = 17\nvalue = 9.75", fillcolor="#f7dac5"] ;
599 -> 600 ;
601 [label="residual sugar <= 0.95\nsquared_error = 0.1\nsamples = 10\nvalue = 9.52", fillcolor="#f8dfcd"] ;
600 -> 601 ;
602 [label="volatile acidity <= 0.31\nsquared_error = 0.01\nsamples = 5\nvalue = 9.29", fillcolor="#f9e4d4"] ;
601 -> 602 ;
603 [label="chlorides <= 0.04\nsquared_error = 0.0\nsamples = 3\nvalue = 9.22", fillcolor="#fae5d7"] ;
602 -> 603 ;
604 [label="squared_error = 0.0\nsamples = 1\nvalue = 9.3", fillcolor="#f9e4d4"] ;
603 -> 604 ;
605 [label="squared_error = 0.0\nsamples = 2\nvalue = 9.2", fillcolor="#fae6d7"] ;
603 -> 605 ;
606 [label="chlorides <= 0.11\nsquared_error = 0.0\nsamples = 2\nvalue = 9.43", fillcolor="#f9e1d0"] ;
602 -> 606 ;
607 [label="squared_error = 0.0\nsamples = 1\nvalue = 9.5", fillcolor="#f8e0ce"] ;
606 -> 607 ;
608 [label="squared_error = 0.0\nsamples = 1\nvalue = 9.4", fillcolor="#f9e2d1"] ;
606 -> 608 ;
609 [label="pH <= 3.24\nsquared_error = 0.03\nsamples = 5\nvalue = 9.86", fillcolor="#f7d8c2"] ;
601 -> 609 ;
610 [label="sulphates <= 0.43\nsquared_error = 0.0\nsamples = 3\nvalue = 9.75", fillcolor="#f7dac5"] ;
609 -> 610 ;
611 [label="squared_error = 0.0\nsamples = 1\nvalue = 9.8", fillcolor="#f7d9c4"] ;
610 -> 611 ;
612 [label="squared_error = -0.0\nsamples = 2\nvalue = 9.7", fillcolor="#f8dbc7"] ;
610 -> 612 ;
613 [label="sulphates <= 0.55\nsquared_error = 0.01\nsamples = 2\nvalue = 10.07", fillcolor="#f6d3bb"] ;
609 -> 613 ;
614 [label="squared_error = 0.0\nsamples = 1\nvalue = 10.15", fillcolor="#f6d2b8"] ;
613 -> 614 ;
615 [label="squared_error = 0.0\nsamples = 1\nvalue = 10.0", fillcolor="#f6d5bd"] ;
613 -> 615 ;
616 [label="free sulfur dioxide <= 17.5\nsquared_error = 0.16\nsamples = 7\nvalue = 10.19", fillcolor="#f6d1b7"] ;
600 -> 616 ;
617 [label="free sulfur dioxide <= 6.5\nsquared_error = 0.07\nsamples = 5\nvalue = 10.37", fillcolor="#f5cdb1"] ;
616 -> 617 ;
618 [label="squared_error = 0.0\nsamples = 1\nvalue = 9.9", fillcolor="#f7d7c0"] ;
617 -> 618 ;
619 [label="volatile acidity <= 0.33\nsquared_error = 0.03\nsamples = 4\nvalue = 10.46", fillcolor="#f4cbae"] ;
617 -> 619 ;
620 [label="quality <= 5.5\nsquared_error = 0.0\nsamples = 3\nvalue = 10.55", fillcolor="#f4c9ab"] ;
619 -> 620 ;
621 [label="squared_error = 0.0\nsamples = 1\nvalue = 10.6", fillcolor="#f4c8a9"] ;
620 -> 621 ;
622 [label="squared_error = -0.0\nsamples = 2\nvalue = 10.5", fillcolor="#f4caac"] ;
620 -> 622 ;
623 [label="squared_error = -0.0\nsamples = 1\nvalue = 10.1", fillcolor="#f6d3ba"] ;
619 -> 623 ;
624 [label="free sulfur dioxide <= 26.5\nsquared_error = 0.02\nsamples = 2\nvalue = 9.65", fillcolor="#f8dcc9"] ;
616 -> 624 ;
625 [label="squared_error = 0.0\nsamples = 1\nvalue = 9.5", fillcolor="#f8e0ce"] ;
624 -> 625 ;
626 [label="squared_error = 0.0\nsamples = 1\nvalue = 9.8", fillcolor="#f7d9c4"] ;
624 -> 626 ;
627 [label="total sulfur dioxide <= 167.5\nsquared_error = 0.2\nsamples = 79\nvalue = 10.44", fillcolor="#f4ccaf"] ;
599 -> 627 ;
628 [label="fixed acidity <= 6.95\nsquared_error = 0.18\nsamples = 67\nvalue = 10.36", fillcolor="#f5cdb1"] ;
627 -> 628 ;
629 [label="pH <= 3.35\nsquared_error = 0.14\nsamples = 32\nvalue = 10.18", fillcolor="#f6d1b7"] ;
628 -> 629 ;
630 [label="total sulfur dioxide <= 99.0\nsquared_error = 0.09\nsamples = 24\nvalue = 10.07", fillcolor="#f6d4bb"] ;
629 -> 630 ;
631 [label="density <= 0.99\nsquared_error = 0.04\nsamples = 5\nvalue = 10.5", fillcolor="#f4caac"] ;
630 -> 631 ;
632 [label="quality <= 6.0\nsquared_error = 0.01\nsamples = 3\nvalue = 10.62", fillcolor="#f4c8a9"] ;
631 -> 632 ;
633 [label="quality <= 4.5\nsquared_error = 0.0\nsamples = 2\nvalue = 10.57", fillcolor="#f4c9aa"] ;
632 -> 633 ;
634 [label="squared_error = 0.0\nsamples = 1\nvalue = 10.6", fillcolor="#f4c8a9"] ;
633 -> 634 ;
635 [label="squared_error = 0.0\nsamples = 1\nvalue = 10.5", fillcolor="#f4caac"] ;
633 -> 635 ;
636 [label="squared_error = -0.0\nsamples = 1\nvalue = 10.7", fillcolor="#f3c6a6"] ;
632 -> 636 ;
637 [label="fixed acidity <= 6.2\nsquared_error = 0.01\nsamples = 2\nvalue = 10.2", fillcolor="#f5d1b6"] ;
631 -> 637 ;
638 [label="squared_error = 0.0\nsamples = 1\nvalue = 10.1", fillcolor="#f6d3ba"] ;
637 -> 638 ;
639 [label="squared_error = 0.0\nsamples = 1\nvalue = 10.3", fillcolor="#f5cfb3"] ;
637 -> 639 ;
640 [label="pH <= 3.12\nsquared_error = 0.06\nsamples = 19\nvalue = 9.98", fillcolor="#f6d6be"] ;
630 -> 640 ;
641 [label="citric acid <= 0.25\nsquared_error = 0.02\nsamples = 6\nvalue = 9.76", fillcolor="#f7dac5"] ;
640 -> 641 ;
642 [label="fixed acidity <= 6.6\nsquared_error = 0.0\nsamples = 2\nvalue = 9.45", fillcolor="#f9e1cf"] ;
641 -> 642 ;
643 [label="squared_error = 0.0\nsamples = 1\nvalue = 9.4", fillcolor="#f9e2d1"] ;
642 -> 643 ;
644 [label="squared_error = 0.0\nsamples = 1\nvalue = 9.5", fillcolor="#f8e0ce"] ;
642 -> 644 ;
645 [label="pH <= 3.08\nsquared_error = 0.0\nsamples = 4\nvalue = 9.82", fillcolor="#f7d9c3"] ;
641 -> 645 ;
646 [label="squared_error = 0.0\nsamples = 3\nvalue = 9.8", fillcolor="#f7d9c4"] ;
645 -> 646 ;
647 [label="squared_error = 0.0\nsamples = 1\nvalue = 9.9", fillcolor="#f7d7c0"] ;
645 -> 647 ;
648 [label="volatile acidity <= 0.33\nsquared_error = 0.03\nsamples = 13\nvalue = 10.12", fillcolor="#f6d3b9"] ;
640 -> 648 ;
649 [label="density <= 0.99\nsquared_error = 0.02\nsamples = 10\nvalue = 10.22", fillcolor="#f5d0b6"] ;
648 -> 649 ;
650 [label="sulphates <= 0.52\nsquared_error = 0.0\nsamples = 3\nvalue = 10.37", fillcolor="#f5cdb1"] ;
649 -> 650 ;
651 [label="squared_error = 0.0\nsamples = 2\nvalue = 10.4", fillcolor="#f5cdb0"] ;
650 -> 651 ;
652 [label="squared_error = -0.0\nsamples = 1\nvalue = 10.3", fillcolor="#f5cfb3"] ;
650 -> 652 ;
653 [label="sulphates <= 0.53\nsquared_error = 0.01\nsamples = 7\nvalue = 10.17", fillcolor="#f6d1b7"] ;
649 -> 653 ;
654 [label="total sulfur dioxide <= 153.0\nsquared_error = 0.0\nsamples = 5\nvalue = 10.1", fillcolor="#f6d3ba"] ;
653 -> 654 ;
655 [label="volatile acidity <= 0.29\nsquared_error = 0.0\nsamples = 4\nvalue = 10.08", fillcolor="#f6d3ba"] ;
654 -> 655 ;
656 [label="squared_error = 0.0\nsamples = 3\nvalue = 10.1", fillcolor="#f6d3ba"] ;
655 -> 656 ;
657 [label="squared_error = 0.0\nsamples = 1\nvalue = 10.0", fillcolor="#f6d5bd"] ;
655 -> 657 ;
658 [label="squared_error = -0.0\nsamples = 1\nvalue = 10.2", fillcolor="#f5d1b6"] ;
654 -> 658 ;
659 [label="residual sugar <= 1.45\nsquared_error = 0.0\nsamples = 2\nvalue = 10.33", fillcolor="#f5ceb2"] ;
653 -> 659 ;
660 [label="squared_error = 0.0\nsamples = 1\nvalue = 10.4", fillcolor="#f5cdb0"] ;
659 -> 660 ;
661 [label="squared_error = -0.0\nsamples = 1\nvalue = 10.3", fillcolor="#f5cfb3"] ;
659 -> 661 ;
662 [label="residual sugar <= 1.45\nsquared_error = 0.0\nsamples = 3\nvalue = 9.93", fillcolor="#f7d7bf"] ;
648 -> 662 ;
663 [label="squared_error = 0.0\nsamples = 2\nvalue = 9.9", fillcolor="#f7d7c0"] ;
662 -> 663 ;
664 [label="squared_error = -0.0\nsamples = 1\nvalue = 10.1", fillcolor="#f6d3ba"] ;
662 -> 664 ;
665 [label="total sulfur dioxide <= 114.0\nsquared_error = 0.11\nsamples = 8\nvalue = 10.55", fillcolor="#f4c9ab"] ;
629 -> 665 ;
666 [label="residual sugar <= 1.4\nsquared_error = 0.05\nsamples = 5\nvalue = 10.36", fillcolor="#f5cdb1"] ;
665 -> 666 ;
667 [label="squared_error = 0.0\nsamples = 1\nvalue = 10.6", fillcolor="#f4c8a9"] ;
666 -> 667 ;
668 [label="sulphates <= 0.5\nsquared_error = 0.04\nsamples = 4\nvalue = 10.28", fillcolor="#f5cfb4"] ;
666 -> 668 ;
669 [label="squared_error = 0.0\nsamples = 2\nvalue = 10.0", fillcolor="#f6d5bd"] ;
668 -> 669 ;
670 [label="residual sugar <= 1.55\nsquared_error = 0.0\nsamples = 2\nvalue = 10.42", fillcolor="#f4ccaf"] ;
668 -> 670 ;
671 [label="squared_error = 0.0\nsamples = 1\nvalue = 10.4", fillcolor="#f5cdb0"] ;
670 -> 671 ;
672 [label="squared_error = 0.0\nsamples = 1\nvalue = 10.5", fillcolor="#f4caac"] ;
670 -> 672 ;
673 [label="total sulfur dioxide <= 154.5\nsquared_error = 0.01\nsamples = 3\nvalue = 10.92", fillcolor="#f2c29e"] ;
665 -> 673 ;
674 [label="quality <= 5.5\nsquared_error = 0.0\nsamples = 2\nvalue = 10.87", fillcolor="#f3c3a0"] ;
673 -> 674 ;
675 [label="squared_error = 0.0\nsamples = 1\nvalue = 10.8", fillcolor="#f3c4a3"] ;
674 -> 675 ;
676 [label="squared_error = -0.0\nsamples = 1\nvalue = 10.9", fillcolor="#f2c29f"] ;
674 -> 676 ;
677 [label="squared_error = -0.0\nsamples = 1\nvalue = 11.1", fillcolor="#f2be99"] ;
673 -> 677 ;
678 [label="volatile acidity <= 0.27\nsquared_error = 0.15\nsamples = 35\nvalue = 10.54", fillcolor="#f4caab"] ;
628 -> 678 ;
679 [label="citric acid <= 0.3\nsquared_error = 0.13\nsamples = 21\nvalue = 10.39", fillcolor="#f5cdb0"] ;
678 -> 679 ;
680 [label="quality <= 6.5\nsquared_error = 0.11\nsamples = 5\nvalue = 10.02", fillcolor="#f6d5bc"] ;
679 -> 680 ;
681 [label="citric acid <= 0.27\nsquared_error = 0.05\nsamples = 4\nvalue = 9.94", fillcolor="#f7d6bf"] ;
680 -> 681 ;
682 [label="pH <= 3.08\nsquared_error = 0.01\nsamples = 2\nvalue = 9.78", fillcolor="#f7dac4"] ;
681 -> 682 ;
683 [label="squared_error = 0.0\nsamples = 1\nvalue = 9.9", fillcolor="#f7d7c0"] ;
682 -> 683 ;
684 [label="squared_error = 0.0\nsamples = 1\nvalue = 9.7", fillcolor="#f8dbc7"] ;
682 -> 684 ;
685 [label="volatile acidity <= 0.22\nsquared_error = 0.02\nsamples = 2\nvalue = 10.2", fillcolor="#f5d1b6"] ;
681 -> 685 ;
686 [label="squared_error = 0.0\nsamples = 1\nvalue = 10.4", fillcolor="#f5cdb0"] ;
685 -> 686 ;
687 [label="squared_error = -0.0\nsamples = 1\nvalue = 10.1", fillcolor="#f6d3ba"] ;
685 -> 687 ;
688 [label="squared_error = -0.0\nsamples = 1\nvalue = 10.7", fillcolor="#f3c6a6"] ;
680 -> 688 ;
689 [label="pH <= 3.22\nsquared_error = 0.07\nsamples = 16\nvalue = 10.52", fillcolor="#f4caac"] ;
679 -> 689 ;
690 [label="density <= 0.99\nsquared_error = 0.05\nsamples = 15\nvalue = 10.49", fillcolor="#f4cbad"] ;
689 -> 690 ;
691 [label="pH <= 3.1\nsquared_error = 0.03\nsamples = 13\nvalue = 10.43", fillcolor="#f4ccaf"] ;
690 -> 691 ;
692 [label="density <= 0.99\nsquared_error = 0.01\nsamples = 6\nvalue = 10.32", fillcolor="#f5ceb2"] ;
691 -> 692 ;
693 [label="squared_error = 0.0\nsamples = 3\nvalue = 10.4", fillcolor="#f5cdb0"] ;
692 -> 693 ;
694 [label="total sulfur dioxide <= 101.0\nsquared_error = 0.0\nsamples = 3\nvalue = 10.25", fillcolor="#f5d0b5"] ;
692 -> 694 ;
695 [label="squared_error = 0.0\nsamples = 2\nvalue = 10.3", fillcolor="#f5cfb3"] ;
694 -> 695 ;
696 [label="squared_error = -0.0\nsamples = 1\nvalue = 10.2", fillcolor="#f5d1b6"] ;
694 -> 696 ;
697 [label="fixed acidity <= 7.15\nsquared_error = 0.03\nsamples = 7\nvalue = 10.58", fillcolor="#f4c9aa"] ;
691 -> 697 ;
698 [label="squared_error = 0.0\nsamples = 2\nvalue = 10.8", fillcolor="#f3c4a3"] ;
697 -> 698 ;
699 [label="chlorides <= 0.03\nsquared_error = 0.02\nsamples = 5\nvalue = 10.51", fillcolor="#f4caac"] ;
697 -> 699 ;
700 [label="squared_error = 0.0\nsamples = 1\nvalue = 10.7", fillcolor="#f3c6a6"] ;
699 -> 700 ;
701 [label="fixed acidity <= 7.55\nsquared_error = 0.0\nsamples = 4\nvalue = 10.44", fillcolor="#f4ccae"] ;
699 -> 701 ;
702 [label="squared_error = 0.0\nsamples = 3\nvalue = 10.4", fillcolor="#f5cdb0"] ;
701 -> 702 ;
703 [label="squared_error = 0.0\nsamples = 1\nvalue = 10.5", fillcolor="#f4caac"] ;
701 -> 703 ;
704 [label="total sulfur dioxide <= 74.5\nsquared_error = 0.01\nsamples = 2\nvalue = 10.87", fillcolor="#f3c3a0"] ;
690 -> 704 ;
705 [label="squared_error = 0.0\nsamples = 1\nvalue = 10.8", fillcolor="#f3c4a3"] ;
704 -> 705 ;
706 [label="squared_error = 0.0\nsamples = 1\nvalue = 11.0", fillcolor="#f2c09c"] ;
704 -> 706 ;
707 [label="squared_error = 0.0\nsamples = 1\nvalue = 11.3", fillcolor="#f1ba92"] ;
689 -> 707 ;
708 [label="total sulfur dioxide <= 103.5\nsquared_error = 0.06\nsamples = 14\nvalue = 10.82", fillcolor="#f3c4a2"] ;
678 -> 708 ;
709 [label="fixed acidity <= 8.65\nsquared_error = 0.02\nsamples = 5\nvalue = 10.54", fillcolor="#f4caab"] ;
708 -> 709 ;
710 [label="chlorides <= 0.03\nsquared_error = 0.0\nsamples = 4\nvalue = 10.48", fillcolor="#f4cbad"] ;
709 -> 710 ;
711 [label="squared_error = 0.0\nsamples = 1\nvalue = 10.4", fillcolor="#f5cdb0"] ;
710 -> 711 ;
712 [label="squared_error = 0.0\nsamples = 3\nvalue = 10.5", fillcolor="#f4caac"] ;
710 -> 712 ;
713 [label="squared_error = 0.0\nsamples = 1\nvalue = 10.8", fillcolor="#f3c4a3"] ;
709 -> 713 ;
714 [label="quality <= 5.5\nsquared_error = 0.03\nsamples = 9\nvalue = 10.93", fillcolor="#f2c19e"] ;
708 -> 714 ;
715 [label="residual sugar <= 1.55\nsquared_error = 0.01\nsamples = 4\nvalue = 10.74", fillcolor="#f3c5a5"] ;
714 -> 715 ;
716 [label="sulphates <= 0.42\nsquared_error = 0.0\nsamples = 3\nvalue = 10.7", fillcolor="#f3c6a6"] ;
715 -> 716 ;
717 [label="squared_error = 0.0\nsamples = 2\nvalue = 10.7", fillcolor="#f3c6a6"] ;
716 -> 717 ;
718 [label="squared_error = -0.0\nsamples = 1\nvalue = 10.7", fillcolor="#f3c6a6"] ;
716 -> 718 ;
719 [label="squared_error = -0.0\nsamples = 1\nvalue = 10.9", fillcolor="#f2c29f"] ;
715 -> 719 ;
720 [label="free sulfur dioxide <= 25.0\nsquared_error = 0.02\nsamples = 5\nvalue = 11.05", fillcolor="#f2bf9a"] ;
714 -> 720 ;
721 [label="citric acid <= 0.28\nsquared_error = 0.01\nsamples = 2\nvalue = 10.95", fillcolor="#f2c19e"] ;
720 -> 721 ;
722 [label="squared_error = 0.0\nsamples = 1\nvalue = 10.8", fillcolor="#f3c4a3"] ;
721 -> 722 ;
723 [label="squared_error = 0.0\nsamples = 1\nvalue = 11.0", fillcolor="#f2c09c"] ;
721 -> 723 ;
724 [label="residual sugar <= 1.3\nsquared_error = 0.0\nsamples = 3\nvalue = 11.15", fillcolor="#f1bd97"] ;
720 -> 724 ;
725 [label="squared_error = -0.0\nsamples = 2\nvalue = 11.1", fillcolor="#f2be99"] ;
724 -> 725 ;
726 [label="squared_error = 0.0\nsamples = 1\nvalue = 11.2", fillcolor="#f1bc95"] ;
724 -> 726 ;
727 [label="fixed acidity <= 7.15\nsquared_error = 0.14\nsamples = 12\nvalue = 10.85", fillcolor="#f3c3a1"] ;
627 -> 727 ;
728 [label="free sulfur dioxide <= 79.5\nsquared_error = 0.06\nsamples = 9\nvalue = 10.65", fillcolor="#f4c7a8"] ;
727 -> 728 ;
729 [label="total sulfur dioxide <= 190.5\nsquared_error = 0.02\nsamples = 8\nvalue = 10.7", fillcolor="#f3c6a6"] ;
728 -> 729 ;
730 [label="citric acid <= 0.31\nsquared_error = 0.01\nsamples = 6\nvalue = 10.63", fillcolor="#f4c8a8"] ;
729 -> 730 ;
731 [label="total sulfur dioxide <= 173.0\nsquared_error = 0.0\nsamples = 3\nvalue = 10.53", fillcolor="#f4caab"] ;
730 -> 731 ;
732 [label="residual sugar <= 1.45\nsquared_error = 0.0\nsamples = 2\nvalue = 10.5", fillcolor="#f4caac"] ;
731 -> 732 ;
733 [label="squared_error = 0.0\nsamples = 1\nvalue = 10.5", fillcolor="#f4caac"] ;
732 -> 733 ;
734 [label="squared_error = 0.0\nsamples = 1\nvalue = 10.5", fillcolor="#f4caac"] ;
732 -> 734 ;
735 [label="squared_error = 0.0\nsamples = 1\nvalue = 10.57", fillcolor="#f4c9aa"] ;
731 -> 735 ;
736 [label="squared_error = -0.0\nsamples = 3\nvalue = 10.7", fillcolor="#f3c6a6"] ;
730 -> 736 ;
737 [label="density <= 0.99\nsquared_error = 0.0\nsamples = 2\nvalue = 10.93", fillcolor="#f2c19e"] ;
729 -> 737 ;
738 [label="squared_error = 0.0\nsamples = 1\nvalue = 11.0", fillcolor="#f2c09c"] ;
737 -> 738 ;
739 [label="squared_error = 0.0\nsamples = 1\nvalue = 10.9", fillcolor="#f2c29f"] ;
737 -> 739 ;
740 [label="squared_error = 0.0\nsamples = 1\nvalue = 10.0", fillcolor="#f6d5bd"] ;
728 -> 740 ;
741 [label="sulphates <= 0.77\nsquared_error = 0.02\nsamples = 3\nvalue = 11.3", fillcolor="#f1ba92"] ;
727 -> 741 ;
742 [label="squared_error = 0.0\nsamples = 2\nvalue = 11.2", fillcolor="#f1bc95"] ;
741 -> 742 ;
743 [label="squared_error = 0.0\nsamples = 1\nvalue = 11.5", fillcolor="#f0b68c"] ;
741 -> 743 ;
744 [label="squared_error = -0.0\nsamples = 1\nvalue = 13.5", fillcolor="#e78c4a"] ;
598 -> 744 ;
745 [label="residual sugar <= 4.35\nsquared_error = 0.49\nsamples = 305\nvalue = 11.78", fillcolor="#efb082"] ;
345 -> 745 ;
746 [label="density <= 0.99\nsquared_error = 0.37\nsamples = 176\nvalue = 11.52", fillcolor="#f0b58b"] ;
745 -> 746 ;
747 [label="volatile acidity <= 0.39\nsquared_error = 0.31\nsamples = 109\nvalue = 11.73", fillcolor="#efb184"] ;
746 -> 747 ;
748 [label="citric acid <= 0.31\nsquared_error = 0.25\nsamples = 96\nvalue = 11.65", fillcolor="#efb287"] ;
747 -> 748 ;
749 [label="quality <= 4.5\nsquared_error = 0.15\nsamples = 39\nvalue = 11.43", fillcolor="#f0b78e"] ;
748 -> 749 ;
750 [label="squared_error = 0.0\nsamples = 1\nvalue = 10.1", fillcolor="#f6d3ba"] ;
749 -> 750 ;
751 [label="pH <= 3.29\nsquared_error = 0.1\nsamples = 38\nvalue = 11.46", fillcolor="#f0b68d"] ;
749 -> 751 ;
752 [label="fixed acidity <= 7.35\nsquared_error = 0.06\nsamples = 26\nvalue = 11.38", fillcolor="#f0b890"] ;
751 -> 752 ;
753 [label="density <= 0.99\nsquared_error = 0.05\nsamples = 20\nvalue = 11.3", fillcolor="#f1ba92"] ;
752 -> 753 ;
754 [label="total sulfur dioxide <= 81.0\nsquared_error = 0.03\nsamples = 19\nvalue = 11.32", fillcolor="#f1b991"] ;
753 -> 754 ;
755 [label="free sulfur dioxide <= 21.75\nsquared_error = 0.01\nsamples = 3\nvalue = 11.62", fillcolor="#efb388"] ;
754 -> 755 ;
756 [label="squared_error = 0.0\nsamples = 1\nvalue = 11.5", fillcolor="#f0b68c"] ;
755 -> 756 ;
757 [label="sulphates <= 0.42\nsquared_error = 0.0\nsamples = 2\nvalue = 11.73", fillcolor="#efb184"] ;
755 -> 757 ;
758 [label="squared_error = 0.0\nsamples = 1\nvalue = 11.7", fillcolor="#efb185"] ;
757 -> 758 ;
759 [label="squared_error = -0.0\nsamples = 1\nvalue = 11.8", fillcolor="#efaf82"] ;
757 -> 759 ;
760 [label="total sulfur dioxide <= 136.5\nsquared_error = 0.02\nsamples = 16\nvalue = 11.27", fillcolor="#f1ba93"] ;
754 -> 760 ;
761 [label="residual sugar <= 2.15\nsquared_error = 0.01\nsamples = 11\nvalue = 11.21", fillcolor="#f1bc95"] ;
760 -> 761 ;
762 [label="chlorides <= 0.04\nsquared_error = 0.01\nsamples = 2\nvalue = 11.03", fillcolor="#f2bf9b"] ;
761 -> 762 ;
763 [label="squared_error = 0.0\nsamples = 1\nvalue = 10.9", fillcolor="#f2c29f"] ;
762 -> 763 ;
764 [label="squared_error = -0.0\nsamples = 1\nvalue = 11.1", fillcolor="#f2be99"] ;
762 -> 764 ;
765 [label="free sulfur dioxide <= 38.5\nsquared_error = 0.0\nsamples = 9\nvalue = 11.24", fillcolor="#f1bb94"] ;
761 -> 765 ;
766 [label="fixed acidity <= 5.55\nsquared_error = 0.0\nsamples = 6\nvalue = 11.2", fillcolor="#f1bc95"] ;
765 -> 766 ;
767 [label="squared_error = 0.0\nsamples = 1\nvalue = 11.2", fillcolor="#f1bc95"] ;
766 -> 767 ;
768 [label="squared_error = 0.0\nsamples = 5\nvalue = 11.2", fillcolor="#f1bc95"] ;
766 -> 768 ;
769 [label="residual sugar <= 2.75\nsquared_error = 0.0\nsamples = 3\nvalue = 11.3", fillcolor="#f1ba92"] ;
765 -> 769 ;
770 [label="squared_error = 0.0\nsamples = 1\nvalue = 11.3", fillcolor="#f1ba92"] ;
769 -> 770 ;
771 [label="squared_error = -0.0\nsamples = 2\nvalue = 11.3", fillcolor="#f1ba92"] ;
769 -> 771 ;
772 [label="density <= 0.99\nsquared_error = 0.01\nsamples = 5\nvalue = 11.41", fillcolor="#f0b78f"] ;
760 -> 772 ;
773 [label="volatile acidity <= 0.21\nsquared_error = 0.0\nsamples = 4\nvalue = 11.37", fillcolor="#f0b890"] ;
772 -> 773 ;
774 [label="squared_error = 0.0\nsamples = 2\nvalue = 11.4", fillcolor="#f0b88f"] ;
773 -> 774 ;
775 [label="residual sugar <= 2.55\nsquared_error = 0.0\nsamples = 2\nvalue = 11.3", fillcolor="#f1ba92"] ;
773 -> 775 ;
776 [label="squared_error = 0.0\nsamples = 1\nvalue = 11.3", fillcolor="#f1ba92"] ;
775 -> 776 ;
777 [label="squared_error = -0.0\nsamples = 1\nvalue = 11.3", fillcolor="#f1ba92"] ;
775 -> 777 ;
778 [label="squared_error = 0.0\nsamples = 1\nvalue = 11.6", fillcolor="#efb388"] ;
772 -> 778 ;
779 [label="squared_error = -0.0\nsamples = 1\nvalue = 10.4", fillcolor="#f5cdb0"] ;
753 -> 779 ;
780 [label="citric acid <= 0.28\nsquared_error = 0.04\nsamples = 6\nvalue = 11.62", fillcolor="#efb388"] ;
752 -> 780 ;
781 [label="fixed acidity <= 7.95\nsquared_error = 0.0\nsamples = 3\nvalue = 11.82", fillcolor="#eeaf81"] ;
780 -> 781 ;
782 [label="squared_error = 0.0\nsamples = 2\nvalue = 11.8", fillcolor="#efaf82"] ;
781 -> 782 ;
783 [label="squared_error = 0.0\nsamples = 1\nvalue = 11.9", fillcolor="#eead7e"] ;
781 -> 783 ;
784 [label="sulphates <= 0.4\nsquared_error = 0.0\nsamples = 3\nvalue = 11.44", fillcolor="#f0b78d"] ;
780 -> 784 ;
785 [label="free sulfur dioxide <= 38.5\nsquared_error = 0.0\nsamples = 2\nvalue = 11.48", fillcolor="#f0b68c"] ;
784 -> 785 ;
786 [label="squared_error = -0.0\nsamples = 1\nvalue = 11.47", fillcolor="#f0b68d"] ;
785 -> 786 ;
787 [label="squared_error = -0.0\nsamples = 1\nvalue = 11.5", fillcolor="#f0b68c"] ;
785 -> 787 ;
788 [label="squared_error = 0.0\nsamples = 1\nvalue = 11.4", fillcolor="#f0b88f"] ;
784 -> 788 ;
789 [label="fixed acidity <= 6.05\nsquared_error = 0.12\nsamples = 12\nvalue = 11.75", fillcolor="#efb083"] ;
751 -> 789 ;
790 [label="total sulfur dioxide <= 152.0\nsquared_error = 0.03\nsamples = 6\nvalue = 11.54", fillcolor="#f0b58a"] ;
789 -> 790 ;
791 [label="residual sugar <= 2.0\nsquared_error = 0.01\nsamples = 4\nvalue = 11.63", fillcolor="#efb387"] ;
790 -> 791 ;
792 [label="squared_error = 0.0\nsamples = 1\nvalue = 11.5", fillcolor="#f0b68c"] ;
791 -> 792 ;
793 [label="free sulfur dioxide <= 36.0\nsquared_error = 0.0\nsamples = 3\nvalue = 11.68", fillcolor="#efb286"] ;
791 -> 793 ;
794 [label="total sulfur dioxide <= 93.0\nsquared_error = 0.0\nsamples = 2\nvalue = 11.7", fillcolor="#efb185"] ;
793 -> 794 ;
795 [label="squared_error = 0.0\nsamples = 1\nvalue = 11.7", fillcolor="#efb185"] ;
794 -> 795 ;
796 [label="squared_error = -0.0\nsamples = 1\nvalue = 11.7", fillcolor="#efb185"] ;
794 -> 796 ;
797 [label="squared_error = -0.0\nsamples = 1\nvalue = 11.63", fillcolor="#efb387"] ;
793 -> 797 ;
798 [label="squared_error = -0.0\nsamples = 2\nvalue = 11.3", fillcolor="#f1ba92"] ;
790 -> 798 ;
799 [label="residual sugar <= 3.05\nsquared_error = 0.06\nsamples = 6\nvalue = 12.13", fillcolor="#eda877"] ;
789 -> 799 ;
800 [label="total sulfur dioxide <= 93.5\nsquared_error = 0.02\nsamples = 5\nvalue = 12.04", fillcolor="#edaa7a"] ;
799 -> 800 ;
801 [label="squared_error = 0.0\nsamples = 1\nvalue = 11.8", fillcolor="#efaf82"] ;
800 -> 801 ;
802 [label="citric acid <= 0.27\nsquared_error = 0.01\nsamples = 4\nvalue = 12.1", fillcolor="#eda978"] ;
800 -> 802 ;
803 [label="squared_error = 0.0\nsamples = 2\nvalue = 12.0", fillcolor="#eeab7b"] ;
802 -> 803 ;
804 [label="squared_error = -0.0\nsamples = 2\nvalue = 12.2", fillcolor="#eda774"] ;
802 -> 804 ;
805 [label="squared_error = -0.0\nsamples = 1\nvalue = 12.6", fillcolor="#eb9e67"] ;
799 -> 805 ;
806 [label="sulphates <= 0.62\nsquared_error = 0.27\nsamples = 57\nvalue = 11.83", fillcolor="#eeaf81"] ;
748 -> 806 ;
807 [label="pH <= 3.19\nsquared_error = 0.24\nsamples = 45\nvalue = 11.72", fillcolor="#efb184"] ;
806 -> 807 ;
808 [label="total sulfur dioxide <= 162.5\nsquared_error = 0.16\nsamples = 22\nvalue = 11.41", fillcolor="#f0b78e"] ;
807 -> 808 ;
809 [label="density <= 0.99\nsquared_error = 0.1\nsamples = 19\nvalue = 11.3", fillcolor="#f1ba92"] ;
808 -> 809 ;
810 [label="fixed acidity <= 6.75\nsquared_error = 0.13\nsamples = 5\nvalue = 11.68", fillcolor="#efb286"] ;
809 -> 810 ;
811 [label="pH <= 2.97\nsquared_error = 0.02\nsamples = 2\nvalue = 11.18", fillcolor="#f1bc96"] ;
810 -> 811 ;
812 [label="squared_error = 0.0\nsamples = 1\nvalue = 11.05", fillcolor="#f2bf9a"] ;
811 -> 812 ;
813 [label="squared_error = -0.0\nsamples = 1\nvalue = 11.3", fillcolor="#f1ba92"] ;
811 -> 813 ;
814 [label="citric acid <= 0.42\nsquared_error = 0.0\nsamples = 3\nvalue = 11.92", fillcolor="#eead7d"] ;
810 -> 814 ;
815 [label="squared_error = 0.0\nsamples = 1\nvalue = 12.0", fillcolor="#eeab7b"] ;
814 -> 815 ;
816 [label="squared_error = 0.0\nsamples = 2\nvalue = 11.9", fillcolor="#eead7e"] ;
814 -> 816 ;
817 [label="volatile acidity <= 0.28\nsquared_error = 0.05\nsamples = 14\nvalue = 11.2", fillcolor="#f1bc96"] ;
809 -> 817 ;
818 [label="density <= 0.99\nsquared_error = 0.03\nsamples = 10\nvalue = 11.31", fillcolor="#f1ba92"] ;
817 -> 818 ;
819 [label="quality <= 6.5\nsquared_error = 0.02\nsamples = 8\nvalue = 11.36", fillcolor="#f0b890"] ;
818 -> 819 ;
820 [label="fixed acidity <= 7.65\nsquared_error = 0.01\nsamples = 5\nvalue = 11.43", fillcolor="#f0b78e"] ;
819 -> 820 ;
821 [label="residual sugar <= 3.5\nsquared_error = 0.01\nsamples = 4\nvalue = 11.47", fillcolor="#f0b68d"] ;
820 -> 821 ;
822 [label="squared_error = 0.0\nsamples = 2\nvalue = 11.4", fillcolor="#f0b88f"] ;
821 -> 822 ;
823 [label="quality <= 5.5\nsquared_error = 0.0\nsamples = 2\nvalue = 11.53", fillcolor="#f0b58a"] ;
821 -> 823 ;
824 [label="squared_error = 0.0\nsamples = 1\nvalue = 11.5", fillcolor="#f0b68c"] ;
823 -> 824 ;
825 [label="squared_error = -0.0\nsamples = 1\nvalue = 11.6", fillcolor="#efb388"] ;
823 -> 825 ;
826 [label="squared_error = -0.0\nsamples = 1\nvalue = 11.2", fillcolor="#f1bc95"] ;
820 -> 826 ;
827 [label="citric acid <= 0.35\nsquared_error = 0.0\nsamples = 3\nvalue = 11.26", fillcolor="#f1bb93"] ;
819 -> 827 ;
828 [label="squared_error = -0.0\nsamples = 2\nvalue = 11.3", fillcolor="#f1ba92"] ;
827 -> 828 ;
829 [label="squared_error = 0.0\nsamples = 1\nvalue = 11.2", fillcolor="#f1bc95"] ;
827 -> 829 ;
830 [label="citric acid <= 0.34\nsquared_error = 0.01\nsamples = 2\nvalue = 11.0", fillcolor="#f2c09c"] ;
818 -> 830 ;
831 [label="squared_error = 0.0\nsamples = 1\nvalue = 11.1", fillcolor="#f2be99"] ;
830 -> 831 ;
832 [label="squared_error = -0.0\nsamples = 1\nvalue = 10.9", fillcolor="#f2c29f"] ;
830 -> 832 ;
833 [label="total sulfur dioxide <= 139.0\nsquared_error = 0.02\nsamples = 4\nvalue = 11.0", fillcolor="#f2c09c"] ;
817 -> 833 ;
834 [label="volatile acidity <= 0.31\nsquared_error = 0.0\nsamples = 2\nvalue = 10.83", fillcolor="#f3c4a2"] ;
833 -> 834 ;
835 [label="squared_error = 0.0\nsamples = 1\nvalue = 10.9", fillcolor="#f2c29f"] ;
834 -> 835 ;
836 [label="squared_error = 0.0\nsamples = 1\nvalue = 10.8", fillcolor="#f3c4a3"] ;
834 -> 836 ;
837 [label="squared_error = -0.0\nsamples = 2\nvalue = 11.1", fillcolor="#f2be99"] ;
833 -> 837 ;
838 [label="fixed acidity <= 7.25\nsquared_error = 0.0\nsamples = 3\nvalue = 12.04", fillcolor="#edaa7a"] ;
808 -> 838 ;
839 [label="squared_error = 0.0\nsamples = 2\nvalue = 12.0", fillcolor="#eeab7b"] ;
838 -> 839 ;
840 [label="squared_error = -0.0\nsamples = 1\nvalue = 12.1", fillcolor="#eda978"] ;
838 -> 840 ;
841 [label="fixed acidity <= 7.0\nsquared_error = 0.16\nsamples = 23\nvalue = 11.99", fillcolor="#eeab7b"] ;
807 -> 841 ;
842 [label="residual sugar <= 2.65\nsquared_error = 0.11\nsamples = 16\nvalue = 11.79", fillcolor="#efaf82"] ;
841 -> 842 ;
843 [label="density <= 0.99\nsquared_error = 0.07\nsamples = 7\nvalue = 11.58", fillcolor="#efb489"] ;
842 -> 843 ;
844 [label="pH <= 3.35\nsquared_error = 0.02\nsamples = 5\nvalue = 11.69", fillcolor="#efb285"] ;
843 -> 844 ;
845 [label="citric acid <= 0.33\nsquared_error = 0.0\nsamples = 3\nvalue = 11.8", fillcolor="#efaf82"] ;
844 -> 845 ;
846 [label="squared_error = 0.0\nsamples = 1\nvalue = 11.8", fillcolor="#efaf82"] ;
845 -> 846 ;
847 [label="total sulfur dioxide <= 113.5\nsquared_error = 0.0\nsamples = 2\nvalue = 11.8", fillcolor="#efaf82"] ;
845 -> 847 ;
848 [label="squared_error = 0.0\nsamples = 1\nvalue = 11.8", fillcolor="#efaf82"] ;
847 -> 848 ;
849 [label="squared_error = -0.0\nsamples = 1\nvalue = 11.8", fillcolor="#efaf82"] ;
847 -> 849 ;
850 [label="density <= 0.99\nsquared_error = 0.01\nsamples = 2\nvalue = 11.55", fillcolor="#f0b48a"] ;
844 -> 850 ;
851 [label="squared_error = 0.0\nsamples = 1\nvalue = 11.4", fillcolor="#f0b88f"] ;
850 -> 851 ;
852 [label="squared_error = -0.0\nsamples = 1\nvalue = 11.6", fillcolor="#efb388"] ;
850 -> 852 ;
853 [label="squared_error = -0.0\nsamples = 2\nvalue = 11.1", fillcolor="#f2be99"] ;
843 -> 853 ;
854 [label="volatile acidity <= 0.36\nsquared_error = 0.06\nsamples = 9\nvalue = 11.98", fillcolor="#eeab7c"] ;
842 -> 854 ;
855 [label="fixed acidity <= 6.08\nsquared_error = 0.02\nsamples = 8\nvalue = 11.92", fillcolor="#eead7e"] ;
854 -> 855 ;
856 [label="chlorides <= 0.04\nsquared_error = 0.0\nsamples = 2\nvalue = 11.73", fillcolor="#efb184"] ;
855 -> 856 ;
857 [label="squared_error = 0.0\nsamples = 1\nvalue = 11.7", fillcolor="#efb185"] ;
856 -> 857 ;
858 [label="squared_error = -0.0\nsamples = 1\nvalue = 11.8", fillcolor="#efaf82"] ;
856 -> 858 ;
859 [label="residual sugar <= 2.85\nsquared_error = 0.01\nsamples = 6\nvalue = 11.99", fillcolor="#eeab7b"] ;
855 -> 859 ;
860 [label="squared_error = 0.0\nsamples = 1\nvalue = 11.8", fillcolor="#efaf82"] ;
859 -> 860 ;
861 [label="quality <= 6.5\nsquared_error = 0.0\nsamples = 5\nvalue = 12.01", fillcolor="#eeab7b"] ;
859 -> 861 ;
862 [label="squared_error = 0.0\nsamples = 4\nvalue = 12.0", fillcolor="#eeab7b"] ;
861 -> 862 ;
863 [label="squared_error = 0.0\nsamples = 1\nvalue = 12.1", fillcolor="#eda978"] ;
861 -> 863 ;
864 [label="squared_error = 0.0\nsamples = 1\nvalue = 12.7", fillcolor="#eb9c64"] ;
854 -> 864 ;
865 [label="chlorides <= 0.04\nsquared_error = 0.08\nsamples = 7\nvalue = 12.3", fillcolor="#eca571"] ;
841 -> 865 ;
866 [label="total sulfur dioxide <= 65.5\nsquared_error = 0.02\nsamples = 4\nvalue = 12.1", fillcolor="#eda978"] ;
865 -> 866 ;
867 [label="squared_error = 0.0\nsamples = 1\nvalue = 11.9", fillcolor="#eead7e"] ;
866 -> 867 ;
868 [label="squared_error = -0.0\nsamples = 3\nvalue = 12.2", fillcolor="#eda774"] ;
866 -> 868 ;
869 [label="pH <= 3.26\nsquared_error = 0.01\nsamples = 3\nvalue = 12.6", fillcolor="#eb9e67"] ;
865 -> 869 ;
870 [label="squared_error = 0.0\nsamples = 1\nvalue = 12.8", fillcolor="#ea9a61"] ;
869 -> 870 ;
871 [label="citric acid <= 0.34\nsquared_error = 0.0\nsamples = 2\nvalue = 12.56", fillcolor="#eb9f69"] ;
869 -> 871 ;
872 [label="squared_error = 0.0\nsamples = 1\nvalue = 12.6", fillcolor="#eb9e67"] ;
871 -> 872 ;
873 [label="squared_error = 0.0\nsamples = 1\nvalue = 12.5", fillcolor="#eca06a"] ;
871 -> 873 ;
874 [label="citric acid <= 0.35\nsquared_error = 0.11\nsamples = 12\nvalue = 12.31", fillcolor="#eca471"] ;
806 -> 874 ;
875 [label="density <= 0.99\nsquared_error = 0.06\nsamples = 5\nvalue = 12.06", fillcolor="#edaa79"] ;
874 -> 875 ;
876 [label="sulphates <= 0.71\nsquared_error = 0.02\nsamples = 2\nvalue = 12.27", fillcolor="#eca572"] ;
875 -> 876 ;
877 [label="squared_error = 0.0\nsamples = 1\nvalue = 12.5", fillcolor="#eca06a"] ;
876 -> 877 ;
878 [label="squared_error = 0.0\nsamples = 1\nvalue = 12.2", fillcolor="#eda774"] ;
876 -> 878 ;
879 [label="free sulfur dioxide <= 32.0\nsquared_error = 0.02\nsamples = 3\nvalue = 11.85", fillcolor="#eeae80"] ;
875 -> 879 ;
880 [label="squared_error = 0.0\nsamples = 2\nvalue = 12.0", fillcolor="#eeab7b"] ;
879 -> 880 ;
881 [label="squared_error = 0.0\nsamples = 1\nvalue = 11.7", fillcolor="#efb185"] ;
879 -> 881 ;
882 [label="density <= 0.99\nsquared_error = 0.04\nsamples = 7\nvalue = 12.56", fillcolor="#eb9f68"] ;
874 -> 882 ;
883 [label="chlorides <= 0.03\nsquared_error = 0.01\nsamples = 4\nvalue = 12.42", fillcolor="#eca26d"] ;
882 -> 883 ;
884 [label="squared_error = 0.0\nsamples = 2\nvalue = 12.5", fillcolor="#eca06a"] ;
883 -> 884 ;
885 [label="quality <= 6.5\nsquared_error = 0.0\nsamples = 2\nvalue = 12.3", fillcolor="#eca571"] ;
883 -> 885 ;
886 [label="squared_error = 0.0\nsamples = 1\nvalue = 12.3", fillcolor="#eca571"] ;
885 -> 886 ;
887 [label="squared_error = 0.0\nsamples = 1\nvalue = 12.3", fillcolor="#eca571"] ;
885 -> 887 ;
888 [label="chlorides <= 0.04\nsquared_error = 0.0\nsamples = 3\nvalue = 12.8", fillcolor="#ea9a61"] ;
882 -> 888 ;
889 [label="squared_error = -0.0\nsamples = 2\nvalue = 12.8", fillcolor="#ea9a61"] ;
888 -> 889 ;
890 [label="squared_error = 0.0\nsamples = 1\nvalue = 12.8", fillcolor="#ea9a61"] ;
888 -> 890 ;
891 [label="total sulfur dioxide <= 90.0\nsquared_error = 0.26\nsamples = 13\nvalue = 12.34", fillcolor="#eca470"] ;
747 -> 891 ;
892 [label="quality <= 7.0\nsquared_error = 0.05\nsamples = 5\nvalue = 11.75", fillcolor="#efb083"] ;
891 -> 892 ;
893 [label="density <= 0.99\nsquared_error = 0.02\nsamples = 4\nvalue = 11.6", fillcolor="#efb388"] ;
892 -> 893 ;
894 [label="total sulfur dioxide <= 83.5\nsquared_error = 0.0\nsamples = 2\nvalue = 11.45", fillcolor="#f0b78d"] ;
893 -> 894 ;
895 [label="squared_error = 0.0\nsamples = 1\nvalue = 11.5", fillcolor="#f0b68c"] ;
894 -> 895 ;
896 [label="squared_error = 0.0\nsamples = 1\nvalue = 11.4", fillcolor="#f0b88f"] ;
894 -> 896 ;
897 [label="squared_error = 0.0\nsamples = 2\nvalue = 11.7", fillcolor="#efb185"] ;
893 -> 897 ;
898 [label="squared_error = 0.0\nsamples = 1\nvalue = 12.0", fillcolor="#eeab7b"] ;
892 -> 898 ;
899 [label="total sulfur dioxide <= 98.0\nsquared_error = 0.05\nsamples = 8\nvalue = 12.71", fillcolor="#eb9c64"] ;
891 -> 899 ;
900 [label="fixed acidity <= 6.95\nsquared_error = 0.02\nsamples = 3\nvalue = 12.4", fillcolor="#eca36e"] ;
899 -> 900 ;
901 [label="squared_error = 0.0\nsamples = 1\nvalue = 12.2", fillcolor="#eda774"] ;
900 -> 901 ;
902 [label="squared_error = -0.0\nsamples = 2\nvalue = 12.5", fillcolor="#eca06a"] ;
900 -> 902 ;
903 [label="sulphates <= 0.53\nsquared_error = 0.02\nsamples = 5\nvalue = 12.8", fillcolor="#ea9a61"] ;
899 -> 903 ;
904 [label="density <= 0.99\nsquared_error = 0.01\nsamples = 4\nvalue = 12.75", fillcolor="#ea9b62"] ;
903 -> 904 ;
905 [label="squared_error = 0.0\nsamples = 1\nvalue = 12.6", fillcolor="#eb9e67"] ;
904 -> 905 ;
906 [label="squared_error = 0.0\nsamples = 3\nvalue = 12.8", fillcolor="#ea9a61"] ;
904 -> 906 ;
907 [label="squared_error = -0.0\nsamples = 1\nvalue = 13.0", fillcolor="#e9965a"] ;
903 -> 907 ;
908 [label="sulphates <= 0.96\nsquared_error = 0.26\nsamples = 67\nvalue = 11.15", fillcolor="#f1bd97"] ;
746 -> 908 ;
909 [label="volatile acidity <= 0.25\nsquared_error = 0.2\nsamples = 66\nvalue = 11.1", fillcolor="#f2be99"] ;
908 -> 909 ;
910 [label="chlorides <= 0.09\nsquared_error = 0.21\nsamples = 38\nvalue = 10.95", fillcolor="#f2c19e"] ;
909 -> 910 ;
911 [label="pH <= 3.24\nsquared_error = 0.17\nsamples = 37\nvalue = 10.9", fillcolor="#f2c29f"] ;
910 -> 911 ;
912 [label="citric acid <= 0.3\nsquared_error = 0.11\nsamples = 20\nvalue = 10.73", fillcolor="#f3c6a5"] ;
911 -> 912 ;
913 [label="quality <= 5.5\nsquared_error = 0.01\nsamples = 6\nvalue = 10.41", fillcolor="#f5ccaf"] ;
912 -> 913 ;
914 [label="squared_error = 0.0\nsamples = 1\nvalue = 10.2", fillcolor="#f5d1b6"] ;
913 -> 914 ;
915 [label="residual sugar <= 2.1\nsquared_error = 0.0\nsamples = 5\nvalue = 10.45", fillcolor="#f4ccae"] ;
913 -> 915 ;
916 [label="squared_error = 0.0\nsamples = 1\nvalue = 10.4", fillcolor="#f5cdb0"] ;
915 -> 916 ;
917 [label="citric acid <= 0.2\nsquared_error = 0.0\nsamples = 4\nvalue = 10.48", fillcolor="#f4cbad"] ;
915 -> 917 ;
918 [label="squared_error = 0.0\nsamples = 1\nvalue = 10.4", fillcolor="#f5cdb0"] ;
917 -> 918 ;
